{"learner":{"attributes":{"scikit_learn":"{\"_estimator_type\": \"regressor\"}"},"feature_names":[],"feature_types":[],"gradient_booster":{"model":{"gbtree_model_param":{"num_parallel_tree":"1","num_trees":"100"},"iteration_indptr":[0,1,2,3,4,5,6,7,8,9,10,11,12,13,14,15,16,17,18,19,20,21,22,23,24,25,26,27,28,29,30,31,32,33,34,35,36,37,38,39,40,41,42,43,44,45,46,47,48,49,50,51,52,53,54,55,56,57,58,59,60,61,62,63,64,65,66,67,68,69,70,71,72,73,74,75,76,77,78,79,80,81,82,83,84,85,86,87,88,89,90,91,92,93,94,95,96,97,98,99,100],"tree_info":[0,0,0,0,0,0,0,0,0,0,0,0,0,0,0,0,0,0,0,0,0,0,0,0,0,0,0,0,0,0,0,0,0,0,0,0,0,0,0,0,0,0,0,0,0,0,0,0,0,0,0,0,0,0,0,0,0,0,0,0,0,0,0,0,0,0,0,0,0,0,0,0,0,0,0,0,0,0,0,0,0,0,0,0,0,0,0,0,0,0,0,0,0,0,0,0,0,0,0,0],"trees":[{"base_weights":[-3.7041505E-9,-1.2783014E0,2.796798E-2,-1.5454304E0,4.8344454E-1,2.9229856E-1,-8.717959E-2,3.4371066E-1,-1.8625069E0,-4.2793524E-2,1.1531021E-1,-4.15794E-1,5.046765E-1,-1.3711989E0,-3.279263E-2,4.247746E-2,9.079141E-3,-2.034487E0,1.0062711E-2,2.6212645E-1,-1.4445895E0,4.0734902E-1,1.3688078E0,1.1039127E0,-1.6739057E0,6.315747E-1,-1.0000115E-1,-2.1913755E0,-1.5435658E-2,1.4977173E0,4.7457103E-2,-2.18159E0,-6.486232E-1,5.814543E-1,-5.040577E-1,2.918622E-1,2.0276039E0,3.27595E-2,1.328274E-1,-1.8129218E0,4.8369978E-2,1.492876E0,-3.6957573E-2,-1.2982221E0,-7.1379535E-2,-1.255994E-1,-2.761528E-1,8.032255E-2,2.1378422E-1,-9.978509E-2,5.4296296E-2,2.2124527E-2,-2.4439982E-1,-1.4000069E-1,6.833153E-2,3.8688187E-2,1.5459551E-1,2.3445671E-2,-1.3174161E-1,1.3140717E-1,-2.6788626E-2,-1.3719574E-2,2.2578035E-1,-7.3416635E-2,-2.1457513E-1,1.8064313E-1,-2.913419E-2,-4.6400364E-2,1.310467E-1,4.3535408E-2,-1.515115E-1,-1.2794005E-2,5.152799E-2],"categories":[],"categories_nodes":[],"categories_segments":[],"categories_sizes":[],"default_left":[0,0,0,0,0,0,0,0,0,0,0,0,0,0,0,0,0,0,0,0,0,0,0,0,0,0,0,0,0,0,0,0,0,0,0,0,0,0,0,0,0,0,0,0,0,0,0,0,0,0,0,0,0,0,0,0,0,0,0,0,0,0,0,0,0,0,0,0,0,0,0,0,0],"id":0,"left_children":[1,3,5,7,9,11,13,15,17,-1,-1,19,21,23,25,-1,-1,27,-1,29,31,33,35,37,39,41,43,45,-1,47,49,51,53,55,57,59,61,-1,-1,63,-1,65,67,69,71,-1,-1,-1,-1,-1,-1,-1,-1,-1,-1,-1,-1,-1,-1,-1,-1,-1,-1,-1,-1,-1,-1,-1,-1,-1,-1,-1,-1],"loss_changes":[2.83867E1,8.7475605E0,2.367505E1,9.625195E0,2.32439E0,3.5700294E1,3.7805008E1,2.2942036E-2,4.593788E0,0E0,0E0,3.873795E1,1.4749298E1,1.8330975E1,2.3326405E1,0E0,0E0,3.201397E0,0E0,8.9472E0,1.1490776E1,2.6475405E1,1.2179001E1,8.739114E-2,6.875744E0,2.7693941E1,1.6163174E1,2.3979492E0,0E0,5.056391E-1,1.6080482E1,7.4764786E0,1.2966209E1,2.5487362E1,1.6527151E1,4.929463E0,5.7914543E0,0E0,0E0,5.2464523E0,0E0,1.2274761E1,1.6719608E1,4.795618E0,1.5462261E1,0E0,0E0,0E0,0E0,0E0,0E0,0E0,0E0,0E0,0E0,0E0,0E0,0E0,0E0,0E0,0E0,0E0,0E0,0E0,0E0,0E0,0E0,0E0,0E0,0E0,0E0,0E0,0E0],"parents":[2147483647,0,0,1,1,2,2,3,3,4,4,5,5,6,6,7,7,8,8,11,11,12,12,13,13,14,14,17,17,19,19,20,20,21,21,22,22,23,23,24,24,25,25,26,26,27,27,29,29,30,30,31,31,32,32,33,33,34,34,35,35,36,36,39,39,41,41,42,42,43,43,44,44],"right_children":[2,4,6,8,10,12,14,16,18,-1,-1,20,22,24,26,-1,-1,28,-1,30,32,34,36,38,40,42,44,46,-1,48,50,52,54,56,58,60,62,-1,-1,64,-1,66,68,70,72,-1,-1,-1,-1,-1,-1,-1,-1,-1,-1,-1,-1,-1,-1,-1,-1,-1,-1,-1,-1,-1,-1,-1,-1,-1,-1,-1,-1],"split_conditions":[-3.5854776E0,2.1386487E0,-8.6898994E-1,-9.169143E-1,-1.0097163E-1,-1.4800048E0,-7.4312127E-1,-1.429957E0,2.3411305E0,-4.2793524E-2,1.1531021E-1,3.99901E-1,-1.1071479E0,-4.0680604E0,-2.3319151E0,4.247746E-2,9.079141E-3,1.1931671E0,1.0062711E-2,-2.5881827E0,-1.1952624E-1,1.8778411E0,-9.03745E-1,-8.534079E-1,2.9646382E0,-2.887152E-1,-3.548703E0,-8.6898994E-1,-1.5435658E-2,-2.8064995E0,-3.707767E-2,-1.7004528E0,3.2711232E-3,1.0450559E0,7.189135E-1,-1.267033E0,-1.6399226E0,3.27595E-2,1.328274E-1,-5.385524E-1,4.8369978E-2,1.8310196E0,1.1234107E0,-2.519106E0,2.5351505E0,-1.255994E-1,-2.761528E-1,8.032255E-2,2.1378422E-1,-9.978509E-2,5.4296296E-2,2.2124527E-2,-2.4439982E-1,-1.4000069E-1,6.833153E-2,3.8688187E-2,1.5459551E-1,2.3445671E-2,-1.3174161E-1,1.3140717E-1,-2.6788626E-2,-1.3719574E-2,2.2578035E-1,-7.3416635E-2,-2.1457513E-1,1.8064313E-1,-2.913419E-2,-4.6400364E-2,1.310467E-1,4.3535408E-2,-1.515115E-1,-1.2794005E-2,5.152799E-2],"split_indices":[9,1,0,6,0,8,0,0,3,0,0,7,0,1,9,0,0,0,0,1,5,5,8,0,9,6,1,2,0,1,9,3,3,5,8,9,2,0,0,3,0,2,4,7,6,0,0,0,0,0,0,0,0,0,0,0,0,0,0,0,0,0,0,0,0,0,0,0,0,0,0,0,0],"split_type":[0,0,0,0,0,0,0,0,0,0,0,0,0,0,0,0,0,0,0,0,0,0,0,0,0,0,0,0,0,0,0,0,0,0,0,0,0,0,0,0,0,0,0,0,0,0,0,0,0,0,0,0,0,0,0,0,0,0,0,0,0,0,0,0,0,0,0,0,0,0,0,0,0],"sum_hessian":[7.92E2,1.6E1,7.76E2,1.4E1,2E0,2.35E2,5.41E2,2E0,1.2E1,1E0,1E0,5.4E1,1.81E2,2.1E1,5.2E2,1E0,1E0,1.1E1,1E0,3.3E1,2.1E1,1.64E2,1.7E1,2E0,1.9E1,4.7E1,4.73E2,1E1,1E0,4E0,2.9E1,1E1,1.1E1,1.38E2,2.6E1,7E0,1E1,1E0,1E0,1.8E1,1E0,2E1,2.7E1,1E1,4.63E2,5E0,5E0,3E0,1E0,9E0,2E1,1E0,9E0,7E0,4E0,1.16E2,2.2E1,1.4E1,1.2E1,2E0,5E0,1E0,9E0,5E0,1.3E1,1.7E1,3E0,2.1E1,6E0,1E0,9E0,4.23E2,4E1],"tree_param":{"num_deleted":"0","num_feature":"10","num_nodes":"73","size_leaf_vector":"1"}},{"base_weights":[2.0952712E-4,-1.1671213E0,2.5749315E-2,-1.414592E0,4.592723E-1,2.645786E-1,-7.829028E-2,3.2652515E-1,-1.7075734E0,-4.065385E-2,1.09544694E-1,-3.750387E-1,4.5641583E-1,-1.2374442E0,-2.9193018E-2,4.035359E-2,8.625183E-3,-1.8658038E0,9.559576E-3,3.6952984E-1,-1.1608702E0,1.3899158E0,3.7035087E-1,1.048717E0,-1.5184962E0,5.7333714E-1,-9.014714E-2,-2.008761E0,-1.4663875E-2,-4.4496298E-1,6.4891225E-1,-1.3438758E0,7.511335E-2,2.1679194E0,-1.3840942E-1,-6.6600895E-1,6.004726E-1,3.1121526E-2,1.2618604E-1,-1.6467869E0,4.5951482E-2,1.3508031E0,-3.0238722E-2,-4.7582842E-2,-7.930604E-1,-1.1513277E-1,-2.5314006E-1,-1.23571575E-1,2.766318E-2,1.0240877E-1,-5.222368E-2,-4.3836974E-2,-1.74421E-1,2.4951835E-1,1.0532274E-1,8.3561495E-2,-1.390972E-1,-9.923092E-2,5.944934E-2,8.283406E-2,5.9909313E-3,-6.729858E-2,-1.9465028E-1,2.3134732E-1,7.042201E-2,-4.197124E-2,1.1981412E-1,-7.4658855E-3,1.6688715E-1,5.3145375E-2,-1.1968004E-1],"categories":[],"categories_nodes":[],"categories_segments":[],"categories_sizes":[],"default_left":[0,0,0,0,0,0,0,0,0,0,0,0,0,0,0,0,0,0,0,0,0,0,0,0,0,0,0,0,0,0,0,0,0,0,0,0,0,0,0,0,0,0,0,0,0,0,0,0,0,0,0,0,0,0,0,0,0,0,0,0,0,0,0,0,0,0,0,0,0,0,0],"id":1,"left_children":[1,3,5,7,9,11,13,15,17,-1,-1,19,21,23,25,-1,-1,27,-1,29,31,33,35,37,39,41,43,45,-1,47,49,51,-1,53,55,57,59,-1,-1,61,-1,63,65,67,69,-1,-1,-1,-1,-1,-1,-1,-1,-1,-1,-1,-1,-1,-1,-1,-1,-1,-1,-1,-1,-1,-1,-1,-1,-1,-1],"loss_changes":[2.3672068E1,7.4919205E0,1.9327377E1,8.20929E0,2.0977619E0,2.9128946E1,3.0809792E1,2.0705163E-2,3.887474E0,0E0,0E0,3.260977E1,1.4107422E1,1.5728138E1,1.9186293E1,0E0,0E0,2.6546364E0,0E0,6.887835E0,1.0456932E1,1.8135698E1,4.0466057E1,7.8870535E-2,5.831932E0,2.2565311E1,1.4143874E1,2.0149422E0,0E0,4.9066625E0,1.0201314E1,8.298016E0,0E0,1.019989E0,8.482476E0,1.334029E1,1.69488E1,0E0,0E0,4.235443E0,0E0,1.1442177E1,1.3898682E1,2.0945282E1,1.5074543E1,0E0,0E0,0E0,0E0,0E0,0E0,0E0,0E0,0E0,0E0,0E0,0E0,0E0,0E0,0E0,0E0,0E0,0E0,0E0,0E0,0E0,0E0,0E0,0E0,0E0,0E0],"parents":[2147483647,0,0,1,1,2,2,3,3,4,4,5,5,6,6,7,7,8,8,11,11,12,12,13,13,14,14,17,17,19,19,20,20,21,21,22,22,23,23,24,24,25,25,26,26,27,27,29,29,30,30,31,31,33,33,34,34,35,35,36,36,39,39,41,41,42,42,43,43,44,44],"right_children":[2,4,6,8,10,12,14,16,18,-1,-1,20,22,24,26,-1,-1,28,-1,30,32,34,36,38,40,42,44,46,-1,48,50,52,-1,54,56,58,60,-1,-1,62,-1,64,66,68,70,-1,-1,-1,-1,-1,-1,-1,-1,-1,-1,-1,-1,-1,-1,-1,-1,-1,-1,-1,-1,-1,-1,-1,-1,-1,-1],"split_conditions":[-3.5854776E0,2.1386487E0,-8.6898994E-1,-9.169143E-1,-1.0097163E-1,-1.4800048E0,-7.4312127E-1,-1.429957E0,2.3411305E0,-4.065385E-2,1.09544694E-1,-1.108908E-2,-2.416746E0,-4.0680604E0,-2.3319151E0,4.035359E-2,8.625183E-3,1.1931671E0,9.559576E-3,-1.7464958E0,1.8310196E0,2.480085E-1,-1.2719113E0,-8.534079E-1,2.9646382E0,-2.887152E-1,3.3127644E0,-8.6898994E-1,-1.4663875E-2,-2.5288466E-1,1.4537745E0,-7.5097454E-1,7.511335E-2,6.9011635E-1,-1.4800048E0,1.0450559E0,1.0821729E0,3.1121526E-2,1.2618604E-1,-5.385524E-1,4.5951482E-2,-8.977723E-1,1.1234107E0,3.187063E0,-1.3204283E0,-1.1513277E-1,-2.5314006E-1,-1.23571575E-1,2.766318E-2,1.0240877E-1,-5.222368E-2,-4.3836974E-2,-1.74421E-1,2.4951835E-1,1.0532274E-1,8.3561495E-2,-1.390972E-1,-9.923092E-2,5.944934E-2,8.283406E-2,5.9909313E-3,-6.729858E-2,-1.9465028E-1,2.3134732E-1,7.042201E-2,-4.197124E-2,1.1981412E-1,-7.4658855E-3,1.6688715E-1,5.3145375E-2,-1.1968004E-1],"split_indices":[9,1,0,6,0,8,0,0,3,0,0,7,7,1,9,0,0,0,0,6,3,5,7,0,9,6,0,2,0,1,1,9,0,3,0,3,4,0,0,3,0,1,4,0,7,0,0,0,0,0,0,0,0,0,0,0,0,0,0,0,0,0,0,0,0,0,0,0,0,0,0],"split_type":[0,0,0,0,0,0,0,0,0,0,0,0,0,0,0,0,0,0,0,0,0,0,0,0,0,0,0,0,0,0,0,0,0,0,0,0,0,0,0,0,0,0,0,0,0,0,0,0,0,0,0,0,0,0,0,0,0,0,0,0,0,0,0,0,0,0,0,0,0,0,0],"sum_hessian":[7.92E2,1.6E1,7.76E2,1.4E1,2E0,2.35E2,5.41E2,2E0,1.2E1,1E0,1E0,5.4E1,1.81E2,2.1E1,5.2E2,1E0,1E0,1.1E1,1E0,2.8E1,2.6E1,1.4E1,1.67E2,2E0,1.9E1,4.7E1,4.73E2,1E1,1E0,7E0,2.1E1,2.4E1,2E0,9E0,5E0,3E1,1.37E2,1E0,1E0,1.8E1,1E0,2E1,2.7E1,4.47E2,2.6E1,5E0,5E0,3E0,4E0,1.6E1,5E0,8E0,1.6E1,6E0,3E0,3E0,2E0,2.4E1,6E0,9.6E1,4.1E1,5E0,1.3E1,7E0,1.3E1,2.1E1,6E0,4.41E2,6E0,6E0,2E1],"tree_param":{"num_deleted":"0","num_feature":"10","num_nodes":"71","size_leaf_vector":"1"}},{"base_weights":[5.8931543E-4,-1.0654391E0,2.3912216E-2,-1.2947594E0,4.3630877E-1,4.52858E-2,-1.0648848E0,3.1019887E-1,-1.5655375E0,-3.8621154E-2,1.0406747E-1,5.516435E-1,5.002393E-4,-1.6441019E0,4.2236957E-1,3.833591E-2,8.193924E-3,-7.1278405E-1,-2.0094104E0,3.2356298E-1,1.7053057E0,2.609599E-1,-1.1120197E-1,-1.8235145E0,-5.5783E-2,9.2557535E-2,-2.2162601E-1,-1.9004145E-1,-1.1721796E-1,-2.323406E-1,-7.116158E-2,4.3642357E-1,-1.1680849E-1,2.4849235E-1,4.2870343E-1,-2.7183574E-1,4.281128E-1,-9.773906E-1,-6.46936E-2,-1.9443963E-1,-4.2822935E-2,-3.163525E-2,-1.6086496E-3,-3.1393256E-2,9.081597E-3,6.401021E-2,-5.625678E-2,8.442131E-2,-6.1666757E-2,2.6941938E-2,-1.1242521E-1,-5.7852723E-2,5.3549726E-2,1.19768836E-1,-1.2186014E-1,-3.6912046E-2,2.8765022E-3],"categories":[],"categories_nodes":[],"categories_segments":[],"categories_sizes":[],"default_left":[0,0,0,0,0,0,0,0,0,0,0,0,0,0,0,0,0,0,0,0,0,0,0,0,0,0,0,0,0,0,0,0,0,0,0,0,0,0,0,0,0,0,0,0,0,0,0,0,0,0,0,0,0,0,0,0,0],"id":2,"left_children":[1,3,5,7,9,11,13,15,17,-1,-1,19,21,23,25,-1,-1,27,29,31,33,35,37,39,-1,-1,41,43,-1,-1,-1,45,-1,-1,47,49,51,53,55,-1,-1,-1,-1,-1,-1,-1,-1,-1,-1,-1,-1,-1,-1,-1,-1,-1,-1],"loss_changes":[1.9741737E1,6.4193954E0,1.8130175E1,7.0044403E0,1.8932302E0,1.7302666E1,1.3616064E1,1.8686384E-2,3.4884071E0,0E0,0E0,1.5762154E1,2.0452951E1,1.1265907E0,1.8254429E0,0E0,0E0,1.2181108E0,1.6066437E0,9.432236E0,8.887321E0,1.8907688E1,1.9756998E1,6.8533516E-1,0E0,0E0,5.3321123E-2,1.6769308E-1,0E0,0E0,0E0,1.0533755E1,0E0,0E0,2.6924074E0,2.3833006E1,1.7713491E1,1.4575813E1,1.3325831E1,0E0,0E0,0E0,0E0,0E0,0E0,0E0,0E0,0E0,0E0,0E0,0E0,0E0,0E0,0E0,0E0,0E0,0E0],"parents":[2147483647,0,0,1,1,2,2,3,3,4,4,5,5,6,6,7,7,8,8,11,11,12,12,13,13,14,14,17,17,18,18,19,19,20,20,21,21,22,22,23,23,26,26,27,27,31,31,34,34,35,35,36,36,37,37,38,38],"right_children":[2,4,6,8,10,12,14,16,18,-1,-1,20,22,24,26,-1,-1,28,30,32,34,36,38,40,-1,-1,42,44,-1,-1,-1,46,-1,-1,48,50,52,54,56,-1,-1,-1,-1,-1,-1,-1,-1,-1,-1,-1,-1,-1,-1,-1,-1,-1,-1],"split_conditions":[-3.5854776E0,2.1386487E0,3.7790406E0,-9.169143E-1,-1.0097163E-1,-2.3319151E0,-1.1724335E-1,-1.429957E0,-1.5944009E0,-3.8621154E-2,1.0406747E-1,2.0458553E0,-8.977723E-1,1.066811E0,3.2711232E-3,3.833591E-2,8.193924E-3,1.1386365E0,5.7673033E-2,2.3089447E0,-4.8102012E-1,-1.4800048E0,-7.4312127E-1,3.187063E0,-5.5783E-2,9.2557535E-2,-1.6781648E0,1.0450559E0,-1.1721796E-1,-2.323406E-1,-7.116158E-2,2.2087123E0,-1.1680849E-1,2.4849235E-1,-2.2298315E0,3.99901E-1,-1.587957E0,-2.9927707E0,-1.4166178E0,-1.9443963E-1,-4.2822935E-2,-3.163525E-2,-1.6086496E-3,-3.1393256E-2,9.081597E-3,6.401021E-2,-5.625678E-2,8.442131E-2,-6.1666757E-2,2.6941938E-2,-1.1242521E-1,-5.7852723E-2,5.3549726E-2,1.19768836E-1,-1.2186014E-1,-3.6912046E-2,2.8765022E-3],"split_indices":[9,1,5,6,0,9,4,0,7,0,0,5,0,3,2,0,0,6,0,6,6,8,0,0,0,0,0,3,0,0,0,2,0,0,1,7,9,6,2,0,0,0,0,0,0,0,0,0,0,0,0,0,0,0,0,0,0],"split_type":[0,0,0,0,0,0,0,0,0,0,0,0,0,0,0,0,0,0,0,0,0,0,0,0,0,0,0,0,0,0,0,0,0,0,0,0,0,0,0,0,0,0,0,0,0,0,0,0,0,0,0,0,0,0,0,0,0],"sum_hessian":[7.92E2,1.6E1,7.76E2,1.4E1,2E0,7.62E2,1.4E1,2E0,1.2E1,1E0,1E0,6.1E1,7.01E2,1E1,4E0,1E0,1E0,5E0,7E0,5.2E1,9E0,2.1E2,4.91E2,8E0,2E0,2E0,2E0,3E0,2E0,5E0,2E0,4.9E1,3E0,5E0,4E0,5E1,1.6E2,2.4E1,4.67E2,7E0,1E0,1E0,1E0,2E0,1E0,4.1E1,8E0,3E0,1E0,3.1E1,1.9E1,1.5E1,1.45E2,2E0,2.2E1,1.09E2,3.58E2],"tree_param":{"num_deleted":"0","num_feature":"10","num_nodes":"57","size_leaf_vector":"1"}},{"base_weights":[-1.3606988E-4,-3.9806012E-2,5.659261E-1,-1.0850409E0,-1.6747462E-2,8.058731E-1,-3.010534E-1,-1.3288668E0,4.144933E-1,4.325727E-1,-6.7562364E-2,-2.977608E-1,1.0418495E0,4.3444198E-2,-8.884704E-1,-3.0511936E-2,-1.5427166E0,-3.6690097E-2,9.886409E-2,1.0426424E0,-3.1492434E-2,-9.6567285E-1,-3.916902E-2,-1.0427352E-1,3.5777086E-1,1.3715329E0,1.1345612E-1,-1.4114228E-1,2.7927369E-2,7.7842283E-3,-1.2361019E-2,-1.69865E0,8.627518E-3,1.3674984E0,-5.929836E-1,-6.893746E-1,7.595408E-1,-1.1363801E0,1.13888286E-1,5.887812E-3,-5.4443866E-1,7.863331E-1,-6.78239E-2,9.9696076E-1,1.9266657E0,-2.86219E-1,7.8452356E-2,-9.681713E-2,-2.1460204E-1,1.8142361E-2,1.6288143E-1,-1.3428044E-1,6.0443874E-2,-1.0248398E-1,7.903607E-2,9.49669E-2,-6.344088E-2,2.805729E-2,-1.4195947E-1,-1.3816085E-1,2.755722E-3,-7.8366786E-2,8.692805E-2,1.4713466E-2,9.5035434E-2,1.1517122E-1,2.060906E-2,2.0920496E-1,3.0179728E-2,1.1462899E-1,-7.160188E-2],"categories":[],"categories_nodes":[],"categories_segments":[],"categories_sizes":[],"default_left":[0,0,0,0,0,0,0,0,0,0,0,0,0,0,0,0,0,0,0,0,0,0,0,0,0,0,0,0,0,0,0,0,0,0,0,0,0,0,0,0,0,0,0,0,0,0,0,0,0,0,0,0,0,0,0,0,0,0,0,0,0,0,0,0,0,0,0,0,0,0,0],"id":3,"left_children":[1,3,5,7,9,11,13,15,17,19,21,23,25,-1,27,29,31,-1,-1,33,35,37,39,-1,41,43,45,-1,-1,-1,-1,47,-1,49,51,53,55,57,-1,59,61,63,-1,65,67,69,-1,-1,-1,-1,-1,-1,-1,-1,-1,-1,-1,-1,-1,-1,-1,-1,-1,-1,-1,-1,-1,-1,-1,-1,-1],"loss_changes":[1.7829859E1,1.7865217E1,1.1060129E1,6.4008083E0,1.6628206E1,1.0987917E1,5.570499E0,3.8400688E0,1.7086403E0,2.0983124E1,1.6639408E1,4.279895E0,1.0250973E1,0E0,4.668895E0,3.988486E-2,3.1947231E0,0E0,0E0,1.7813885E1,2.2901094E1,8.479464E0,1.445952E1,0E0,2.753295E0,3.2776184E0,2.906635E0,0E0,0E0,0E0,0E0,1.5170231E0,0E0,8.07288E0,6.198756E0,1.2723583E1,5.903062E0,8.023029E0,0E0,1.7596748E1,1.8267778E1,2.7953863E-1,0E0,1.8432446E0,1.7871704E0,5.1306095E0,0E0,0E0,0E0,0E0,0E0,0E0,0E0,0E0,0E0,0E0,0E0,0E0,0E0,0E0,0E0,0E0,0E0,0E0,0E0,0E0,0E0,0E0,0E0,0E0,0E0],"parents":[2147483647,0,0,1,1,2,2,3,3,4,4,5,5,6,6,7,7,8,8,9,9,10,10,11,11,12,12,14,14,15,15,16,16,19,19,20,20,21,21,22,22,24,24,25,25,26,26,31,31,33,33,34,34,35,35,36,36,37,37,39,39,40,40,41,41,43,43,44,44,45,45],"right_children":[2,4,6,8,10,12,14,16,18,20,22,24,26,-1,28,30,32,-1,-1,34,36,38,40,-1,42,44,46,-1,-1,-1,-1,48,-1,50,52,54,56,58,-1,60,62,64,-1,66,68,70,-1,-1,-1,-1,-1,-1,-1,-1,-1,-1,-1,-1,-1,-1,-1,-1,-1,-1,-1,-1,-1,-1,-1,-1,-1],"split_conditions":[2.8194027E0,-3.5854776E0,4.099182E0,2.1386487E0,-2.416746E0,-1.981313E0,-4.523029E-1,-2.471934E0,-1.0097163E-1,5.7673033E-2,-3.481112E0,-2.8855228E-1,8.5790235E-1,4.3444198E-2,8.144122E-1,-7.157488E-1,2.3411305E0,-3.6690097E-2,9.886409E-2,1.5083219E0,-9.188589E-2,1.5341699E0,2.6493807E0,-1.0427352E-1,7.261011E-1,8.0321103E-1,1.4727865E0,-1.4114228E-1,2.7927369E-2,7.7842283E-3,-1.2361019E-2,-8.6898994E-1,8.627518E-3,-1.4166178E0,1.1234107E0,2.6939468E0,1.8310196E0,-3.4320796E0,1.13888286E-1,-3.728421E0,4.224158E0,-2.3319151E0,-6.78239E-2,5.1840436E-1,2.58092E0,-3.009486E0,7.8452356E-2,-9.681713E-2,-2.1460204E-1,1.8142361E-2,1.6288143E-1,-1.3428044E-1,6.0443874E-2,-1.0248398E-1,7.903607E-2,9.49669E-2,-6.344088E-2,2.805729E-2,-1.4195947E-1,-1.3816085E-1,2.755722E-3,-7.8366786E-2,8.692805E-2,1.4713466E-2,9.5035434E-2,1.1517122E-1,2.060906E-2,2.0920496E-1,3.0179728E-2,1.1462899E-1,-7.160188E-2],"split_indices":[7,9,7,1,7,8,3,1,0,0,1,4,4,0,5,0,3,0,0,2,2,2,8,0,5,5,1,0,0,0,0,2,0,8,4,3,9,0,0,5,8,1,0,4,1,6,0,0,0,0,0,0,0,0,0,0,0,0,0,0,0,0,0,0,0,0,0,0,0,0,0],"split_type":[0,0,0,0,0,0,0,0,0,0,0,0,0,0,0,0,0,0,0,0,0,0,0,0,0,0,0,0,0,0,0,0,0,0,0,0,0,0,0,0,0,0,0,0,0,0,0,0,0,0,0,0,0,0,0,0,0,0,0,0,0,0,0,0,0,0,0,0,0,0,0],"sum_hessian":[7.92E2,7.41E2,5.1E1,1.5E1,7.26E2,4E1,1.1E1,1.3E1,2E0,7.3E1,6.53E2,7E0,3.3E1,5E0,6E0,2E0,1.1E1,1E0,1E0,3.1E1,4.2E1,1.9E1,6.34E2,3E0,4E0,2.4E1,9E0,4E0,2E0,1E0,1E0,1E1,1E0,2.6E1,5E0,2.3E1,1.9E1,1.8E1,1E0,5.83E2,5.1E1,3E0,1E0,1.6E1,8E0,6E0,3E0,5E0,5E0,5E0,2.1E1,3E0,2E0,1.9E1,4E0,1.7E1,2E0,3E0,1.5E1,8E0,5.75E2,4.4E1,7E0,1E0,2E0,1.3E1,3E0,7E0,1E0,1E0,5E0],"tree_param":{"num_deleted":"0","num_feature":"10","num_nodes":"71","size_leaf_vector":"1"}},{"base_weights":[1.3387733E-5,-3.6171496E-2,5.163436E-1,-9.9186146E-1,-1.5088673E-2,7.3587835E-1,-2.767623E-1,-1.217935E0,3.9376864E-1,2.2356309E-2,-5.2254087E-1,-2.757783E-1,9.5227176E-1,8.307181E-2,-1.3839553E-1,-2.898634E-2,-1.4136776E0,-3.4855593E-2,9.392089E-2,5.317831E-1,-3.43759E-2,-6.2309575E-1,2.2023252E-1,-9.6453E-2,3.3037877E-1,1.2493862E0,1.14258446E-1,4.1289397E-2,-5.148849E-1,7.3950165E-3,-1.1742967E-2,-1.5570958E0,8.196141E-3,6.8482786E-1,-5.4760236E-1,-4.5995703E-1,2.6940217E-2,-9.658999E-1,2.0950234E-2,7.35137E-1,-6.44327E-2,9.0525174E-1,1.7605972E0,-9.4701104E-2,3.3740073E-1,1.4056985E-2,-7.8022644E-2,-8.8749036E-2,-1.9671853E-1,3.8036015E-2,2.0065151E-1,8.571922E-3,-1.360684E-1,-5.87308E-2,1.4913581E-1,4.7847647E-3,-1.2002994E-1,-2.902985E-2,-1.6233577E-1,-1.10268965E-1,6.74661E-2,1.3977793E-2,8.869974E-2,1.0447674E-1,1.9063381E-2,1.9089952E-1,2.8670741E-2,8.3706714E-2,-2.297458E-2],"categories":[],"categories_nodes":[],"categories_segments":[],"categories_sizes":[],"default_left":[0,0,0,0,0,0,0,0,0,0,0,0,0,0,0,0,0,0,0,0,0,0,0,0,0,0,0,0,0,0,0,0,0,0,0,0,0,0,0,0,0,0,0,0,0,0,0,0,0,0,0,0,0,0,0,0,0,0,0,0,0,0,0,0,0,0,0,0,0],"id":4,"left_children":[1,3,5,7,9,11,13,15,17,19,21,23,25,27,-1,29,31,-1,-1,33,35,37,-1,-1,39,41,43,-1,45,-1,-1,47,-1,49,51,53,55,57,59,61,-1,63,65,-1,67,-1,-1,-1,-1,-1,-1,-1,-1,-1,-1,-1,-1,-1,-1,-1,-1,-1,-1,-1,-1,-1,-1,-1,-1],"loss_changes":[1.4834571E1,1.4935327E1,9.257609E0,5.4916515E0,1.3825799E1,9.238163E0,4.8958373E0,3.2172146E0,1.5420479E0,1.9613096E1,1.5072193E1,3.6585941E0,8.322767E0,2.1847863E0,0E0,3.5996087E-2,2.701643E0,0E0,0E0,1.1608225E1,1.5956428E1,1.0838535E1,0E0,0E0,2.4462695E0,2.8043518E0,2.6876633E0,0E0,8.0535364E-1,0E0,0E0,1.2747211E0,0E0,2.3381464E1,4.7511168E0,2.0010525E1,1.3784689E1,1.3742483E1,1.3965581E1,2.3766327E-1,0E0,1.495739E0,1.421175E0,0E0,2.7427695E0,0E0,0E0,0E0,0E0,0E0,0E0,0E0,0E0,0E0,0E0,0E0,0E0,0E0,0E0,0E0,0E0,0E0,0E0,0E0,0E0,0E0,0E0,0E0,0E0],"parents":[2147483647,0,0,1,1,2,2,3,3,4,4,5,5,6,6,7,7,8,8,9,9,10,10,11,11,12,12,13,13,15,15,16,16,19,19,20,20,21,21,24,24,25,25,26,26,28,28,31,31,33,33,34,34,35,35,36,36,37,37,38,38,39,39,41,41,42,42,44,44],"right_children":[2,4,6,8,10,12,14,16,18,20,22,24,26,28,-1,30,32,-1,-1,34,36,38,-1,-1,40,42,44,-1,46,-1,-1,48,-1,50,52,54,56,58,60,62,-1,64,66,-1,68,-1,-1,-1,-1,-1,-1,-1,-1,-1,-1,-1,-1,-1,-1,-1,-1,-1,-1,-1,-1,-1,-1,-1,-1],"split_conditions":[2.8194027E0,-3.5854776E0,4.099182E0,2.1386487E0,2.1532674E0,-1.981313E0,8.530529E-1,-2.471934E0,-1.0097163E-1,-2.3584945E0,3.7790406E0,-2.8855228E-1,8.5790235E-1,7.9835033E-1,-1.3839553E-1,-7.157488E-1,2.3411305E0,-3.4855593E-2,9.392089E-2,1.9900831E0,-2.0463483E0,8.74801E-2,2.2023252E-1,-9.6453E-2,7.261011E-1,8.0321103E-1,-1.6399226E0,4.1289397E-2,-1.3331056E-1,7.3950165E-3,-1.1742967E-2,-8.6898994E-1,8.196141E-3,1.0450559E0,2.1532674E0,1.8485686E0,3.7790406E0,2.1650915E-1,-1.2867804E0,-2.3319151E0,-6.44327E-2,5.1840436E-1,2.58092E0,-9.4701104E-2,-1.1753125E0,1.4056985E-2,-7.8022644E-2,-8.8749036E-2,-1.9671853E-1,3.8036015E-2,2.0065151E-1,8.571922E-3,-1.360684E-1,-5.87308E-2,1.4913581E-1,4.7847647E-3,-1.2002994E-1,-2.902985E-2,-1.6233577E-1,-1.10268965E-1,6.74661E-2,1.3977793E-2,8.869974E-2,1.0447674E-1,1.9063381E-2,1.9089952E-1,2.8670741E-2,8.3706714E-2,-2.297458E-2],"split_indices":[7,9,7,1,7,8,8,1,0,0,1,4,4,2,0,0,3,0,0,5,4,0,0,0,5,5,3,0,0,0,0,2,0,5,3,7,6,3,3,1,0,4,1,0,6,0,0,0,0,0,0,0,0,0,0,0,0,0,0,0,0,0,0,0,0,0,0,0,0],"split_type":[0,0,0,0,0,0,0,0,0,0,0,0,0,0,0,0,0,0,0,0,0,0,0,0,0,0,0,0,0,0,0,0,0,0,0,0,0,0,0,0,0,0,0,0,0,0,0,0,0,0,0,0,0,0,0,0,0,0,0,0,0,0,0,0,0,0,0,0,0],"sum_hessian":[7.92E2,7.41E2,5.1E1,1.5E1,7.26E2,4E1,1.1E1,1.3E1,2E0,6.77E2,4.9E1,7E0,3.3E1,9E0,2E0,2E0,1.1E1,1E0,1E0,6.7E1,6.1E2,4.8E1,1E0,3E0,4E0,2.4E1,9E0,6E0,3E0,1E0,1E0,1E1,1E0,5.9E1,8E0,7.6E1,5.34E2,3.1E1,1.7E1,3E0,1E0,1.6E1,8E0,1E0,8E0,1E0,2E0,5E0,5E0,4.9E1,1E1,5E0,3E0,7.2E1,4E0,5.26E2,8E0,1.6E1,1.5E1,6E0,1.1E1,1E0,2E0,1.3E1,3E0,7E0,1E0,4E0,4E0],"tree_param":{"num_deleted":"0","num_feature":"10","num_nodes":"69","size_leaf_vector":"1"}},{"base_weights":[-6.395627E-5,1.8205263E-2,-9.488411E-1,-5.897547E-1,4.6742704E-2,-1.4679132E0,3.828856E-1,7.371736E-1,-9.478144E-1,6.3068695E-2,-9.5575917E-1,-1.6184726E0,-5.269307E-2,8.537144E-2,-2.155717E-1,1.285718E0,-6.0563963E-2,-3.781573E-1,-1.7938156E0,1.21199116E-1,-2.1839553E-1,2.825226E-1,-1.3999112E0,-1.7181346E-1,-4.1058812E-2,-3.0430514E-2,-1.9052414E-3,4.080169E-2,1.6225643E-1,8.797489E-1,-8.0039823E-1,7.365085E-3,-1.9879273E0,9.552206E-2,1.1316423E0,-9.726679E-1,1.1836602E-1,9.5219426E-2,-2.5809934E-2,-1.7699471E-1,-4.9487956E-2,1.0764728E-1,4.6426556E-3,-1.2730126E-1,-2.8681105E-2,-2.1898313E-1,-8.539657E-3,1.1106002E-1,7.272354E-3,-3.3380702E-2,1.3827735E-1,-1.3340485E-1,2.0874104E-2,4.4870686E-2,-4.457992E-2],"categories":[],"categories_nodes":[],"categories_segments":[],"categories_sizes":[],"default_left":[0,0,0,0,0,0,0,0,0,0,0,0,0,0,0,0,0,0,0,0,0,0,0,0,0,0,0,0,0,0,0,0,0,0,0,0,0,0,0,0,0,0,0,0,0,0,0,0,0,0,0,0,0,0,0],"id":5,"left_children":[1,3,5,7,9,11,13,15,17,19,21,23,-1,-1,25,27,-1,29,31,33,35,37,39,-1,-1,-1,-1,-1,-1,41,43,-1,45,47,49,51,53,-1,-1,-1,-1,-1,-1,-1,-1,-1,-1,-1,-1,-1,-1,-1,-1,-1,-1],"loss_changes":[1.3762674E1,1.3542921E1,1.0930975E1,1.7327888E1,1.2253573E1,7.055893E-1,1.5928912E0,6.671423E0,1.2815716E1,1.2035908E1,6.995332E0,3.7797546E-1,0E0,0E0,4.6515733E-2,1.1118689E0,0E0,1.0264661E1,4.1338806E0,1.5692535E1,3.212038E1,1.6939175E0,2.138136E0,0E0,0E0,0E0,0E0,0E0,0E0,7.696955E-1,3.0330868E0,0E0,3.6542778E0,1.3688894E1,5.98188E0,1.692907E1,1.660031E1,0E0,0E0,0E0,0E0,0E0,0E0,0E0,0E0,0E0,0E0,0E0,0E0,0E0,0E0,0E0,0E0,0E0,0E0],"parents":[2147483647,0,0,1,1,2,2,3,3,4,4,5,5,6,6,7,7,8,8,9,9,10,10,11,11,14,14,15,15,17,17,18,18,19,19,20,20,21,21,22,22,29,29,30,30,32,32,33,33,34,34,35,35,36,36],"right_children":[2,4,6,8,10,12,14,16,18,20,22,24,-1,-1,26,28,-1,30,32,34,36,38,40,-1,-1,-1,-1,-1,-1,42,44,-1,46,48,50,52,54,-1,-1,-1,-1,-1,-1,-1,-1,-1,-1,-1,-1,-1,-1,-1,-1,-1,-1],"split_conditions":[3.7790406E0,-3.1834962E0,-1.1724335E-1,-7.696141E-1,4.099182E0,1.066811E0,3.2711232E-3,6.9386595E-1,3.93403E-1,1.8778411E0,-1.5177594E0,3.187063E0,-5.269307E-2,8.537144E-2,-1.6781648E0,3.99901E-1,-6.0563963E-2,-6.162625E-1,-2.519106E0,1.6852634E0,2.2914512E0,5.543016E-1,8.530529E-1,-1.7181346E-1,-4.1058812E-2,-3.0430514E-2,-1.9052414E-3,4.080169E-2,1.6225643E-1,1.8239558E-1,-6.162625E-1,7.365085E-3,1.6852634E0,-3.548703E0,-1.8848757E0,1.294291E0,2.1941084E-1,9.5219426E-2,-2.5809934E-2,-1.7699471E-1,-4.9487956E-2,1.0764728E-1,4.6426556E-3,-1.2730126E-1,-2.8681105E-2,-2.1898313E-1,-8.539657E-3,1.1106002E-1,7.272354E-3,-3.3380702E-2,1.3827735E-1,-1.3340485E-1,2.0874104E-2,4.4870686E-2,-4.457992E-2],"split_indices":[5,8,4,1,0,3,2,5,7,9,7,0,0,0,0,0,0,3,4,9,9,1,7,0,0,0,0,0,0,2,2,0,9,6,5,2,0,0,0,0,0,0,0,0,0,0,0,0,0,0,0,0,0,0,0],"split_type":[0,0,0,0,0,0,0,0,0,0,0,0,0,0,0,0,0,0,0,0,0,0,0,0,0,0,0,0,0,0,0,0,0,0,0,0,0,0,0,0,0,0,0,0,0,0,0,0,0,0,0,0,0,0,0],"sum_hessian":[7.92E2,7.78E2,1.4E1,3.4E1,7.44E2,1E1,4E0,7E0,2.7E1,7.33E2,1.1E1,8E0,2E0,2E0,2E0,5E0,2E0,1.7E1,1E1,6.08E2,1.25E2,3E0,8E0,7E0,1E0,1E0,1E0,2E0,3E0,4E0,1.3E1,1E0,9E0,5.94E2,1.4E1,3.8E1,8.7E1,1E0,2E0,5E0,3E0,3E0,1E0,6E0,7E0,8E0,1E0,1.2E1,5.82E2,2E0,1.2E1,2.9E1,9E0,5.5E1,3.2E1],"tree_param":{"num_deleted":"0","num_feature":"10","num_nodes":"55","size_leaf_vector":"1"}},{"base_weights":[-5.367146E-4,-3.288623E-2,4.6107632E-1,9.093754E-2,-2.317578E-1,1.212796E0,1.2354684E-1,-9.394341E-1,1.3278732E-1,-3.04021E-1,1.3035966E0,-6.0956847E-2,1.3749248E0,-1.0126524E0,4.7190017E-1,-1.1135664E0,1.0104077E-1,2.4623701E-1,-3.383857E-1,-4.030421E-1,4.2834592E-1,1.675428E0,-4.9431747E-1,-4.6331365E-2,1.5393214E0,8.6064406E-2,-1.670829E0,8.33844E-1,-4.2506886E-1,-1.3099794E0,2.3968768E-1,1.833725E-1,1.0712281E0,-9.3101263E-1,6.700521E-2,1.4774881E-1,-4.4101512E-1,9.623156E-1,-4.6717024E-1,-6.88387E-2,1.9806482E0,3.574637E-3,-7.772226E-2,4.240242E-2,1.6898689E0,-1.8187125E-1,-3.9176438E-2,1.7579939E0,4.3517253E-1,-8.3921546E-1,1.444052E-1,1.0480921E-2,-1.5357016E-1,3.635453E-2,-4.013786E-4,2.847521E-2,-6.5810286E-2,1.2133866E-1,-1.1702856E-1,-1.401207E-1,2.2224845E-2,-8.478295E-2,3.331274E-2,-6.799459E-2,-1.4437089E-2,2.3947816E-2,1.733489E-1,1.5089995E-1,-9.636556E-2,2.160583E-1,1.8061794E-2,7.7497415E-2,1.9087255E-1,3.011322E-2,2.4111418E-1,8.287557E-2,1.8092968E-2,-2.171682E-2,-1.4069706E-1],"categories":[],"categories_nodes":[],"categories_segments":[],"categories_sizes":[],"default_left":[0,0,0,0,0,0,0,0,0,0,0,0,0,0,0,0,0,0,0,0,0,0,0,0,0,0,0,0,0,0,0,0,0,0,0,0,0,0,0,0,0,0,0,0,0,0,0,0,0,0,0,0,0,0,0,0,0,0,0,0,0,0,0,0,0,0,0,0,0,0,0,0,0,0,0,0,0,0,0],"id":6,"left_children":[1,3,5,7,9,11,13,15,17,19,21,-1,23,25,27,29,-1,31,33,35,37,39,41,-1,43,-1,45,47,49,51,53,55,57,59,61,-1,63,65,67,-1,69,-1,-1,-1,71,-1,-1,73,75,77,-1,-1,-1,-1,-1,-1,-1,-1,-1,-1,-1,-1,-1,-1,-1,-1,-1,-1,-1,-1,-1,-1,-1,-1,-1,-1,-1,-1,-1],"loss_changes":[1.18569975E1,1.8292847E1,1.3043995E1,1.9874083E1,3.2016953E1,5.5654354E0,1.5122425E1,7.236705E0,2.3656727E1,1.9970543E1,9.518965E0,0E0,5.246191E0,1.253463E1,9.769361E0,4.832529E0,0E0,1.8266678E1,2.0723503E1,1.7861267E1,1.6229456E1,9.299776E0,4.776562E-1,0E0,1.6341286E0,0E0,6.115608E-1,6.972047E0,8.17868E0,4.951191E0,9.201203E-2,2.8509792E1,9.38625E0,1.9290407E1,1.2942243E1,0E0,1.6699783E1,1.129096E1,1.4208966E1,0E0,2.8486443E0,0E0,0E0,0E0,9.235573E-1,0E0,0E0,4.983204E0,1.4511046E0,2.519815E0,0E0,0E0,0E0,0E0,0E0,0E0,0E0,0E0,0E0,0E0,0E0,0E0,0E0,0E0,0E0,0E0,0E0,0E0,0E0,0E0,0E0,0E0,0E0,0E0,0E0,0E0,0E0,0E0,0E0],"parents":[2147483647,0,0,1,1,2,2,3,3,4,4,5,5,6,6,7,7,8,8,9,9,10,10,12,12,13,13,14,14,15,15,17,17,18,18,19,19,20,20,21,21,22,22,24,24,26,26,27,27,28,28,29,29,30,30,31,31,32,32,33,33,34,34,36,36,37,37,38,38,40,40,44,44,47,47,48,48,49,49],"right_children":[2,4,6,8,10,12,14,16,18,20,22,-1,24,26,28,30,-1,32,34,36,38,40,42,-1,44,-1,46,48,50,52,54,56,58,60,62,-1,64,66,68,-1,70,-1,-1,-1,72,-1,-1,74,76,78,-1,-1,-1,-1,-1,-1,-1,-1,-1,-1,-1,-1,-1,-1,-1,-1,-1,-1,-1,-1,-1,-1,-1,-1,-1,-1,-1,-1,-1],"split_conditions":[2.8194027E0,5.0617385E-1,-1.1616149E0,-3.481112E0,3.2371006E0,-3.009486E0,-2.5288466E-1,1.5341699E0,1.8310196E0,2.5215907E0,2.5215907E0,-6.0956847E-2,-3.728421E0,-4.3791065E-1,6.6539323E-1,2.3411305E0,1.0104077E-1,2.710148E0,-9.602825E-2,-3.548703E0,3.4116254E0,-3.1834962E0,2.5351505E0,-4.6331365E-2,-2.7586486E0,8.6064406E-2,2.5351505E0,2.9880602E0,2.9880602E0,-1.0167155E0,-3.4320796E0,1.8778411E0,2.3089447E0,7.748605E-1,2.0139527E0,1.4774881E-1,3.6088884E-1,5.366553E-1,-1.5944009E0,-6.88387E-2,8.341711E-1,3.574637E-3,-7.772226E-2,4.240242E-2,-1.6399226E0,-1.8187125E-1,-3.9176438E-2,-7.4312127E-1,-1.3204283E0,-6.264893E-1,1.444052E-1,1.0480921E-2,-1.5357016E-1,3.635453E-2,-4.013786E-4,2.847521E-2,-6.5810286E-2,1.2133866E-1,-1.1702856E-1,-1.401207E-1,2.2224845E-2,-8.478295E-2,3.331274E-2,-6.799459E-2,-1.4437089E-2,2.3947816E-2,1.733489E-1,1.5089995E-1,-9.636556E-2,2.160583E-1,1.8061794E-2,7.7497415E-2,1.9087255E-1,3.011322E-2,2.4111418E-1,8.287557E-2,1.8092968E-2,-2.171682E-2,-1.4069706E-1],"split_indices":[3,3,2,1,2,2,2,2,2,5,0,0,5,9,5,4,0,9,9,2,5,4,0,0,7,0,1,3,2,9,0,9,4,1,2,0,2,8,6,0,8,0,0,0,1,0,0,7,6,7,0,0,0,0,0,0,0,0,0,0,0,0,0,0,0,0,0,0,0,0,0,0,0,0,0,0,0,0,0],"split_type":[0,0,0,0,0,0,0,0,0,0,0,0,0,0,0,0,0,0,0,0,0,0,0,0,0,0,0,0,0,0,0,0,0,0,0,0,0,0,0,0,0,0,0,0,0,0,0,0,0,0,0,0,0,0,0,0,0,0,0,0,0,0,0,0,0,0,0,0,0,0,0,0,0,0,0,0,0,0,0],"sum_hessian":[7.92E2,7.41E2,5.1E1,4.57E2,2.84E2,1.5E1,3.6E1,1.7E1,4.4E2,2.72E2,1.2E1,1E0,1.4E1,8E0,2.8E1,1.6E1,1E0,3.55E2,8.5E1,2.4E2,3.2E1,1E1,2E0,1E0,1.3E1,2E0,6E0,2E1,8E0,1.4E1,2E0,3.31E2,2.4E1,3.4E1,5.1E1,4E0,2.36E2,2E1,1.2E1,1E0,9E0,1E0,1E0,2E0,1.1E1,5E0,1E0,5E0,1.5E1,7E0,1E0,2E0,1.2E1,1E0,1E0,2.96E2,3.5E1,2.3E1,1E0,2.4E1,1E1,1.1E1,4E1,1.3E2,1.06E2,1.1E1,9E0,2E0,1E1,8E0,1E0,3E0,8E0,2E0,3E0,5E0,1E1,4E0,3E0],"tree_param":{"num_deleted":"0","num_feature":"10","num_nodes":"79","size_leaf_vector":"1"}},{"base_weights":[3.019275E-4,-3.1526748E-2,4.5446682E-1,-6.457276E-2,4.4760874E-1,6.52672E-1,-2.6060635E-1,4.0583894E-2,-2.2924805E-1,1.2609339E0,1.0948985E-1,-2.3580843E-1,8.4252995E-1,4.8786115E-2,-1.2050457E-1,1.5890567E-1,-2.6859996E-1,-2.991098E-1,1.1802472E0,-4.4014797E-2,1.4256438E0,-9.263853E-1,4.507264E-1,-9.082729E-2,3.4932485E-1,1.1159E0,7.485168E-2,3.48059E-1,-4.8713794E-1,-6.6987973E-1,2.0661268E-1,-9.320411E-2,-1.1233793E0,4.5657986E-1,-3.9268506E-1,1.5229108E0,-4.6960157E-1,1.2481941E-2,1.5236443E0,8.032679E-2,-1.5353245E0,-1.4476763E-1,5.7942176E-1,7.409202E-1,-6.0852833E-2,1.4757783E0,7.2772586E-1,1.02002874E-1,-1.4350452E-1,8.644909E-3,3.7725246E-1,4.774631E-3,-6.8134815E-2,3.04525E-2,-1.5698533E-1,-8.289585E-2,2.5010109E-2,-8.255061E-2,1.789241E-2,-1.6228847E-1,-3.325524E-2,1.0528207E-1,-2.6226656E-3,-3.2624338E-2,-1.3992283E-1,-6.539676E-2,1.8059956E-1,3.395905E-3,-7.383614E-2,8.9382194E-2,1.8458286E-1,-1.6671531E-1,-3.7217613E-2,1.4724629E-1,2.0019875E-3,1.9921321E-2,8.550849E-2,6.890287E-2,1.9393097E-1,2.3396365E-2,9.760423E-2,-6.3003324E-2,6.221646E-2,1.0386923E-2,4.1115526E-2],"categories":[],"categories_nodes":[],"categories_segments":[],"categories_sizes":[],"default_left":[0,0,0,0,0,0,0,0,0,0,0,0,0,0,0,0,0,0,0,0,0,0,0,0,0,0,0,0,0,0,0,0,0,0,0,0,0,0,0,0,0,0,0,0,0,0,0,0,0,0,0,0,0,0,0,0,0,0,0,0,0,0,0,0,0,0,0,0,0,0,0,0,0,0,0,0,0,0,0,0,0,0,0,0,0],"id":7,"left_children":[1,3,5,7,9,11,13,15,17,19,21,23,25,27,-1,29,31,33,35,-1,37,39,41,-1,43,45,47,49,51,53,55,57,59,61,63,65,67,-1,69,-1,71,-1,73,75,-1,77,79,-1,81,-1,83,-1,-1,-1,-1,-1,-1,-1,-1,-1,-1,-1,-1,-1,-1,-1,-1,-1,-1,-1,-1,-1,-1,-1,-1,-1,-1,-1,-1,-1,-1,-1,-1,-1,-1],"loss_changes":[1.1477513E1,1.1777371E1,7.5401115E0,1.2044411E1,1.3061969E1,7.114765E0,3.5652187E0,1.5590534E1,2.7038338E1,4.550087E0,1.2789291E1,3.465133E0,7.0517235E0,1.773428E0,0E0,1.2316377E1,1.7586416E1,1.8494184E1,8.064621E0,0E0,1.4670773E0,1.0712557E1,7.435336E0,0E0,2.3263254E0,2.4184265E0,2.2102313E0,2.0847976E-2,4.480517E-1,1.5386015E1,1.3357643E1,1.9876425E1,7.36075E0,8.375812E0,1.499197E1,7.959709E0,4.310847E-1,0E0,7.8518295E-1,0E0,4.5288086E-1,0E0,1.2959311E1,7.703066E-2,0E0,3.0399532E0,1.4881706E0,0E0,3.7446642E0,0E0,1.2904346E-2,0E0,0E0,0E0,0E0,0E0,0E0,0E0,0E0,0E0,0E0,0E0,0E0,0E0,0E0,0E0,0E0,0E0,0E0,0E0,0E0,0E0,0E0,0E0,0E0,0E0,0E0,0E0,0E0,0E0,0E0,0E0,0E0,0E0,0E0],"parents":[2147483647,0,0,1,1,2,2,3,3,4,4,5,5,6,6,7,7,8,8,9,9,10,10,11,11,12,12,13,13,15,15,16,16,17,17,18,18,20,20,21,21,22,22,24,24,25,25,26,26,27,27,28,28,29,29,30,30,31,31,32,32,33,33,34,34,35,35,36,36,38,38,40,40,42,42,43,43,45,45,46,46,48,48,50,50],"right_children":[2,4,6,8,10,12,14,16,18,20,22,24,26,28,-1,30,32,34,36,-1,38,40,42,-1,44,46,48,50,52,54,56,58,60,62,64,66,68,-1,70,-1,72,-1,74,76,-1,78,80,-1,82,-1,84,-1,-1,-1,-1,-1,-1,-1,-1,-1,-1,-1,-1,-1,-1,-1,-1,-1,-1,-1,-1,-1,-1,-1,-1,-1,-1,-1,-1,-1,-1,-1,-1,-1,-1],"split_conditions":[2.8194027E0,2.8194027E0,4.099182E0,5.0617385E-1,-1.1616149E0,-1.981313E0,8.530529E-1,1.1132009E0,3.2371006E0,-3.728421E0,-2.5288466E-1,-2.8855228E-1,8.5790235E-1,7.9835033E-1,-1.2050457E-1,-2.8019264E0,1.6833243E0,-2.416746E0,2.5215907E0,-4.4014797E-2,-2.9036996E0,-4.3791065E-1,-2.7586486E0,-9.082729E-2,7.261011E-1,6.0712945E-1,-3.009486E0,-4.0680604E0,-1.3331056E-1,2.973072E-1,-3.481112E0,-1.3367124E0,6.825475E-2,5.543016E-1,2.8558438E0,-3.1834962E0,2.5351505E0,1.2481941E-2,1.324856E-1,8.032679E-2,2.5351505E0,-1.4476763E-1,3.187063E0,-2.3319151E0,-6.0852833E-2,-8.0627596E-1,1.3074116E0,1.02002874E-1,1.4727865E0,8.644909E-3,-2.471934E0,4.774631E-3,-6.8134815E-2,3.04525E-2,-1.5698533E-1,-8.289585E-2,2.5010109E-2,-8.255061E-2,1.789241E-2,-1.6228847E-1,-3.325524E-2,1.0528207E-1,-2.6226656E-3,-3.2624338E-2,-1.3992283E-1,-6.539676E-2,1.8059956E-1,3.395905E-3,-7.383614E-2,8.9382194E-2,1.8458286E-1,-1.6671531E-1,-3.7217613E-2,1.4724629E-1,2.0019875E-3,1.9921321E-2,8.550849E-2,6.890287E-2,1.9393097E-1,2.3396365E-2,9.760423E-2,-6.3003324E-2,6.221646E-2,1.0386923E-2,4.1115526E-2],"split_indices":[7,3,7,3,2,8,8,5,2,5,2,4,4,2,0,9,8,7,0,0,7,9,4,0,5,2,6,4,0,2,1,8,2,4,8,4,0,0,1,0,1,0,3,1,0,2,2,0,1,0,2,0,0,0,0,0,0,0,0,0,0,0,0,0,0,0,0,0,0,0,0,0,0,0,0,0,0,0,0,0,0,0,0,0,0],"split_type":[0,0,0,0,0,0,0,0,0,0,0,0,0,0,0,0,0,0,0,0,0,0,0,0,0,0,0,0,0,0,0,0,0,0,0,0,0,0,0,0,0,0,0,0,0,0,0,0,0,0,0,0,0,0,0,0,0,0,0,0,0,0,0,0,0,0,0,0,0,0,0,0,0,0,0,0,0,0,0,0,0,0,0,0,0],"sum_hessian":[7.92E2,7.41E2,5.1E1,6.94E2,4.7E1,4E1,1.1E1,4.24E2,2.7E2,1.3E1,3.4E1,7E0,3.3E1,9E0,2E0,3.07E2,1.17E2,2.58E2,1.2E1,1E0,1.2E1,8E0,2.6E1,3E0,4E0,2.4E1,9E0,6E0,3E0,1.6E1,2.91E2,9.8E1,1.9E1,2.8E1,2.3E2,1E1,2E0,1E0,1.1E1,2E0,6E0,1E0,2.5E1,3E0,1E0,1.1E1,1.3E1,1E0,8E0,1E0,5E0,1E0,2E0,8E0,8E0,1.1E1,2.8E2,2.6E1,7.2E1,1.1E1,8E0,1.2E1,1.6E1,2.17E2,1.3E1,1E0,9E0,1E0,1E0,5E0,6E0,5E0,1E0,9E0,1.6E1,1E0,2E0,5E0,6E0,5E0,8E0,5E0,3E0,1E0,4E0],"tree_param":{"num_deleted":"0","num_feature":"10","num_nodes":"85","size_leaf_vector":"1"}},{"base_weights":[2.3219518E-4,-7.651535E-1,1.6977787E-2,-9.3316334E-1,3.2994682E-1,4.1094193E-1,-1.9565204E-2,-2.0743008E-1,-1.275287E0,-3.6422815E-2,8.591484E-2,-1.0084207E-1,7.9069966E-1,-9.995056E-1,2.9579108E-3,-4.607924E-1,1.9952971E-2,-1.435671E0,8.408459E-3,4.0981928E-1,-1.4925555E0,5.003286E-1,1.6707476E0,1.2106882E-1,-1.2674127E0,2.1792504E-1,-9.018587E-2,-5.432802E-2,-1.066645E-2,-6.917413E-1,-1.6923456E0,6.050276E-1,-1.0281758E0,1.8925255E-2,-1.75985E-1,8.9917296E-1,-1.7286906E-1,7.091295E-2,2.0333686E-1,2.0451818E-2,-6.463961E-3,-1.5181116E0,7.428745E-2,-4.5863855E-1,3.3259657E-1,-8.975867E-1,-4.8229393E-2,-1.7643904E-2,-8.046957E-2,-1.8329759E-1,-4.9459726E-2,-7.289011E-2,7.937364E-2,-2.7303582E-2,-1.269228E-1,1.3630162E-1,9.101149E-3,-5.044005E-2,9.898588E-2,-3.921826E-2,-1.7247422E-1,-2.0118317E-2,3.1261437E-2,8.298636E-3,-1.2149644E-1,-1.1712887E-1,3.9982926E-2,8.818107E-2,-1.0994325E-1,-1.5247258E-2,1.9913115E-2],"categories":[],"categories_nodes":[],"categories_segments":[],"categories_sizes":[],"default_left":[0,0,0,0,0,0,0,0,0,0,0,0,0,0,0,0,0,0,0,0,0,0,0,0,0,0,0,0,0,0,0,0,0,0,0,0,0,0,0,0,0,0,0,0,0,0,0,0,0,0,0,0,0,0,0,0,0,0,0,0,0,0,0,0,0,0,0,0,0,0,0],"id":8,"left_children":[1,3,5,7,9,11,13,15,17,-1,-1,19,21,23,25,27,-1,29,-1,31,33,35,37,39,41,43,45,-1,-1,47,49,51,53,-1,-1,55,57,-1,-1,-1,-1,59,61,63,65,67,69,-1,-1,-1,-1,-1,-1,-1,-1,-1,-1,-1,-1,-1,-1,-1,-1,-1,-1,-1,-1,-1,-1,-1,-1],"loss_changes":[1.0176743E1,3.4356833E0,1.1194221E1,3.4598246E0,1.4150015E0,1.2907095E1,1.571773E1,7.1059144E-1,2.3009338E0,0E0,0E0,2.1221813E1,8.874617E0,4.9568014E0,1.3975582E1,5.8896184E-2,0E0,5.478649E-1,0E0,6.7976646E0,3.9293575E0,8.21047E0,1.6964035E0,7.520897E-2,4.485491E0,1.6522467E1,1.6454174E1,0E0,0E0,9.084308E-2,1.040535E-1,5.613036E0,1.9953942E-1,0E0,0E0,6.9982977E0,5.125056E0,0E0,0E0,0E0,0E0,1.8827534E0,2.5984892E-1,1.2799817E1,1.8769266E1,9.589418E0,1.1994905E1,0E0,0E0,0E0,0E0,0E0,0E0,0E0,0E0,0E0,0E0,0E0,0E0,0E0,0E0,0E0,0E0,0E0,0E0,0E0,0E0,0E0,0E0,0E0,0E0],"parents":[2147483647,0,0,1,1,2,2,3,3,4,4,5,5,6,6,7,7,8,8,11,11,12,12,13,13,14,14,15,15,17,17,19,19,20,20,21,21,22,22,23,23,24,24,25,25,26,26,29,29,30,30,31,31,32,32,35,35,36,36,41,41,42,42,43,43,44,44,45,45,46,46],"right_children":[2,4,6,8,10,12,14,16,18,-1,-1,20,22,24,26,28,-1,30,-1,32,34,36,38,40,42,44,46,-1,-1,48,50,52,54,-1,-1,56,58,-1,-1,-1,-1,60,62,64,66,68,70,-1,-1,-1,-1,-1,-1,-1,-1,-1,-1,-1,-1,-1,-1,-1,-1,-1,-1,-1,-1,-1,-1,-1,-1],"split_conditions":[-3.5854776E0,2.1386487E0,-2.3319151E0,-1.0715289E0,-1.0097163E-1,-2.9036996E0,-2.1670113E0,1.294291E0,2.3411305E0,-3.6422815E-2,8.591484E-2,1.8059571E0,1.5853367E0,-1.8176361E0,-8.977723E-1,7.748605E-1,1.9952971E-2,-8.6898994E-1,8.408459E-3,2.8194027E0,-2.3319151E0,5.043817E-1,-1.3331056E-1,-8.534079E-1,2.2575855E0,-2.2298315E0,-7.4312127E-1,-5.432802E-2,-1.066645E-2,-1.3367124E0,2.1386487E0,-9.636551E-1,-2.471934E0,1.8925255E-2,-1.75985E-1,8.447766E-1,2.0601768E0,7.091295E-2,2.0333686E-1,2.0451818E-2,-6.463961E-3,-2.9927707E0,-1.6048213E0,3.4212685E-1,-3.1834962E0,-2.9927707E0,1.066811E0,-1.7643904E-2,-8.046957E-2,-1.8329759E-1,-4.9459726E-2,-7.289011E-2,7.937364E-2,-2.7303582E-2,-1.269228E-1,1.3630162E-1,9.101149E-3,-5.044005E-2,9.898588E-2,-3.921826E-2,-1.7247422E-1,-2.0118317E-2,3.1261437E-2,8.298636E-3,-1.2149644E-1,-1.1712887E-1,3.9982926E-2,8.818107E-2,-1.0994325E-1,-1.5247258E-2,1.9913115E-2],"split_indices":[9,1,9,1,0,9,9,3,3,0,0,2,5,4,0,0,0,2,0,5,1,7,0,0,4,8,0,0,0,0,2,2,0,0,0,6,2,0,0,0,0,1,0,7,4,6,4,0,0,0,0,0,0,0,0,0,0,0,0,0,0,0,0,0,0,0,0,0,0,0,0],"split_type":[0,0,0,0,0,0,0,0,0,0,0,0,0,0,0,0,0,0,0,0,0,0,0,0,0,0,0,0,0,0,0,0,0,0,0,0,0,0,0,0,0,0,0,0,0,0,0,0,0,0,0,0,0,0,0,0,0,0,0,0,0,0,0,0,0,0,0,0,0,0,0],"sum_hessian":[7.92E2,1.6E1,7.76E2,1.4E1,2E0,6.5E1,7.11E2,5E0,9E0,1E0,1E0,2.8E1,3.7E1,1.5E1,6.96E2,3E0,2E0,8E0,1E0,2.1E1,7E0,2.9E1,8E0,3E0,1.2E1,2.1E2,4.86E2,2E0,1E0,3E0,5E0,1.9E1,2E0,1E0,6E0,1.8E1,1.1E1,3E0,5E0,2E0,1E0,1E1,2E0,3E1,1.8E2,2.3E1,4.63E2,1E0,2E0,4E0,1E0,2E0,1.7E1,1E0,1E0,1.1E1,7E0,9E0,2E0,2E0,8E0,1E0,1E0,1.8E1,1.2E1,7E0,1.73E2,2E0,2.1E1,3.26E2,1.37E2],"tree_param":{"num_deleted":"0","num_feature":"10","num_nodes":"71","size_leaf_vector":"1"}},{"base_weights":[-4.8285018E-4,1.4863751E-2,-7.974508E-1,-7.073448E-1,3.0935416E-2,-1.2290963E0,3.1165951E-1,-8.643473E-1,3.1344947E-1,4.3905342E-1,-5.153261E-3,-1.3716872E0,-3.9162513E-2,7.1826273E-1,-1.9883022E-1,1.8622773E-2,-1.0402994E0,-3.4601677E-2,8.16191E-2,1.6874415E0,2.9994145E-1,-9.112151E-1,1.5956119E-2,-1.4417432E-1,-4.056189E-2,2.1587525E-2,8.615189E-2,-3.346839E-2,3.6438599E-3,-4.351903E-1,-1.3640938E0,2.3727345E-1,2.1123703E-1,7.554402E-1,5.23121E-2,1.12458915E-1,-1.1560984E0,2.1547282E-1,-6.9939755E-2,-9.4534E-3,-7.443353E-2,-1.5979795E-1,-4.4162467E-2,2.7892638E-2,3.7929162E-3,1.0979066E-1,-3.7412692E-3,-1.18461326E-1,2.326743E-2,1.9088363E-2,-6.1407634E-3,-1.3855453E-1,7.057307E-3,-1.7596016E-2,3.764384E-2,-8.087348E-2,-3.1072896E-3],"categories":[],"categories_nodes":[],"categories_segments":[],"categories_sizes":[],"default_left":[0,0,0,0,0,0,0,0,0,0,0,0,0,0,0,0,0,0,0,0,0,0,0,0,0,0,0,0,0,0,0,0,0,0,0,0,0,0,0,0,0,0,0,0,0,0,0,0,0,0,0,0,0,0,0,0,0],"id":9,"left_children":[1,3,5,7,9,11,13,15,17,19,21,23,-1,25,27,-1,29,-1,-1,31,33,35,37,-1,-1,-1,-1,-1,-1,39,41,-1,43,45,47,49,51,53,55,-1,-1,-1,-1,-1,-1,-1,-1,-1,-1,-1,-1,-1,-1,-1,-1,-1,-1],"loss_changes":[9.710836E0,9.063808E0,7.5641975E0,2.995473E0,1.1240061E1,7.7638626E-1,1.1806462E0,2.9664965E0,1.2770388E0,1.0261142E1,1.3441275E1,2.431488E-2,0E0,2.9929638E-2,1.0808183E-1,0E0,1.9534607E0,0E0,0E0,5.5685863E0,6.389787E0,4.1409025E0,1.1788644E1,0E0,0E0,0E0,0E0,0E0,0E0,5.6150806E-1,1.0203114E0,0E0,2.4613842E-2,5.4715853E0,8.753222E0,6.626345E-2,3.75671E0,1.3108735E1,1.3786613E1,0E0,0E0,0E0,0E0,0E0,0E0,0E0,0E0,0E0,0E0,0E0,0E0,0E0,0E0,0E0,0E0,0E0,0E0],"parents":[2147483647,0,0,1,1,2,2,3,3,4,4,5,5,6,6,7,7,8,8,9,9,10,10,11,11,13,13,14,14,16,16,19,19,20,20,21,21,22,22,29,29,30,30,32,32,33,33,34,34,35,35,36,36,37,37,38,38],"right_children":[2,4,6,8,10,12,14,16,18,20,22,24,-1,26,28,-1,30,-1,-1,32,34,36,38,-1,-1,-1,-1,-1,-1,40,42,-1,44,46,48,50,52,54,56,-1,-1,-1,-1,-1,-1,-1,-1,-1,-1,-1,-1,-1,-1,-1,-1,-1,-1],"split_conditions":[3.7790406E0,-3.5854776E0,-1.1724335E-1,2.1386487E0,-2.3319151E0,1.066811E0,3.2711232E-3,-9.169143E-1,-1.0097163E-1,-2.541909E0,-2.1670113E0,3.187063E0,-3.9162513E-2,-1.7004528E0,-1.6781648E0,1.8622773E-2,-1.5944009E0,-3.4601677E-2,8.16191E-2,6.196404E-1,-8.977723E-1,-1.8176361E0,-8.977723E-1,-1.4417432E-1,-4.056189E-2,2.1587525E-2,8.615189E-2,-3.346839E-2,3.6438599E-3,1.1386365E0,5.7673033E-2,2.3727345E-1,-3.829438E0,1.9462019E0,-7.157488E-1,-8.534079E-1,2.2575855E0,-1.3367124E0,-7.4312127E-1,-9.4534E-3,-7.443353E-2,-1.5979795E-1,-4.4162467E-2,2.7892638E-2,3.7929162E-3,1.0979066E-1,-3.7412692E-3,-1.18461326E-1,2.326743E-2,1.9088363E-2,-6.1407634E-3,-1.3855453E-1,7.057307E-3,-1.7596016E-2,3.764384E-2,-8.087348E-2,-3.1072896E-3],"split_indices":[5,9,4,1,9,3,2,6,0,2,9,0,0,0,0,0,7,0,0,6,1,4,0,0,0,0,0,0,0,6,0,0,0,7,1,0,4,8,0,0,0,0,0,0,0,0,0,0,0,0,0,0,0,0,0,0,0],"split_type":[0,0,0,0,0,0,0,0,0,0,0,0,0,0,0,0,0,0,0,0,0,0,0,0,0,0,0,0,0,0,0,0,0,0,0,0,0,0,0,0,0,0,0,0,0,0,0,0,0,0,0,0,0,0,0,0,0],"sum_hessian":[7.92E2,7.78E2,1.4E1,1.6E1,7.62E2,1E1,4E0,1.4E1,2E0,6.1E1,7.01E2,8E0,2E0,2E0,2E0,2E0,1.2E1,1E0,1E0,5E0,5.6E1,1.5E1,6.86E2,7E0,1E0,1E0,1E0,1E0,1E0,5E0,7E0,3E0,2E0,1.9E1,3.7E1,3E0,1.2E1,2.06E2,4.8E2,3E0,2E0,5E0,2E0,1E0,1E0,1.3E1,6E0,4E0,3.3E1,2E0,1E0,1E1,2E0,6E1,1.46E2,2.3E1,4.57E2],"tree_param":{"num_deleted":"0","num_feature":"10","num_nodes":"57","size_leaf_vector":"1"}},{"base_weights":[-7.7612576E-4,-2.883961E-2,3.9968315E-1,3.1092274E-1,-6.750993E-2,5.8234537E-1,-2.5771967E-1,8.5113645E-1,-8.013864E-2,-1.0223428E0,-5.142062E-2,-8.083882E-2,6.7439294E-1,3.3876978E-2,-1.14380196E-1,1.0528187E0,-8.238432E-1,-5.619801E-1,4.4914928E-1,-2.6478278E-2,-1.3924823E0,-1.6123312E-2,-4.796075E-1,-3.5883674E-1,8.027288E-1,3.051319E-1,-4.4928837E-1,-7.097963E-2,1.4136171E0,4.5346953E-2,-1.4007705E-1,2.0630056E-2,-1.2523949E0,1.4197417E-1,1.46515E-1,-4.8542667E-2,2.8831342E-1,-1.6365315E-1,-4.402231E-2,-7.37449E-1,8.397293E-3,-6.6016966E-1,7.2387004E-1,-6.3799135E-2,3.7889075E-2,8.9378387E-1,-4.6645334E-1,9.130391E-3,3.255526E-2,5.453626E-3,-6.354087E-2,-1.0324683E-1,4.2159468E-2,5.7311874E-2,1.8529649E-1,-1.6603187E-1,2.7765064E-2,-1.4586483E-1,4.050691E-2,9.322873E-2,-3.3087302E-2,7.553246E-4,4.2491686E-2,-8.759765E-2,9.472873E-2,-5.1802643E-2,3.7575716E-3,-1.1747694E-1,-9.217127E-3,1.06595635E-1,-6.643241E-2,-5.384111E-2,9.553653E-2,-8.566056E-2,1.5692556E-2],"categories":[],"categories_nodes":[],"categories_segments":[],"categories_sizes":[],"default_left":[0,0,0,0,0,0,0,0,0,0,0,0,0,0,0,0,0,0,0,0,0,0,0,0,0,0,0,0,0,0,0,0,0,0,0,0,0,0,0,0,0,0,0,0,0,0,0,0,0,0,0,0,0,0,0,0,0,0,0,0,0,0,0,0,0,0,0,0,0,0,0,0,0,0,0],"id":10,"left_children":[1,3,5,7,9,11,13,15,17,19,21,-1,23,25,-1,27,29,31,33,35,37,39,41,43,45,47,49,51,53,-1,-1,55,57,59,-1,-1,61,-1,-1,63,65,67,69,-1,-1,71,73,-1,-1,-1,-1,-1,-1,-1,-1,-1,-1,-1,-1,-1,-1,-1,-1,-1,-1,-1,-1,-1,-1,-1,-1,-1,-1,-1,-1],"loss_changes":[8.923485E0,9.7699175E0,6.3943796E0,1.6123722E1,1.0194282E1,5.7937307E0,3.139292E0,1.1677387E1,1.1728893E1,4.017826E0,9.922063E0,0E0,5.459465E0,1.4477019E0,0E0,1.1858818E1,3.5828733E0,9.679661E0,6.657968E0,7.178476E-1,1.1387444E0,1.0760097E1,1.1343002E1,1.2714291E0,4.4617004E0,8.4131956E-4,4.097408E-1,4.22412E0,7.0619926E0,0E0,0E0,6.5095253E0,4.351286E0,7.035021E0,0E0,0E0,1.1184895E-1,0E0,0E0,5.497452E0,9.06663E0,1.2752562E1,4.032316E0,0E0,0E0,3.4248695E0,8.6406136E-1,0E0,0E0,0E0,0E0,0E0,0E0,0E0,0E0,0E0,0E0,0E0,0E0,0E0,0E0,0E0,0E0,0E0,0E0,0E0,0E0,0E0,0E0,0E0,0E0,0E0,0E0,0E0,0E0],"parents":[2147483647,0,0,1,1,2,2,3,3,4,4,5,5,6,6,7,7,8,8,9,9,10,10,12,12,13,13,15,15,16,16,17,17,18,18,19,19,20,20,21,21,22,22,23,23,24,24,25,25,26,26,27,27,28,28,31,31,32,32,33,33,36,36,39,39,40,40,41,41,42,42,45,45,46,46],"right_children":[2,4,6,8,10,12,14,16,18,20,22,-1,24,26,-1,28,30,32,34,36,38,40,42,44,46,48,50,52,54,-1,-1,56,58,60,-1,-1,62,-1,-1,64,66,68,70,-1,-1,72,74,-1,-1,-1,-1,-1,-1,-1,-1,-1,-1,-1,-1,-1,-1,-1,-1,-1,-1,-1,-1,-1,-1,-1,-1,-1,-1,-1,-1],"split_conditions":[2.8194027E0,-2.416746E0,4.099182E0,5.7673033E-2,-3.728421E0,-2.9927707E0,8.530529E-1,2.1386487E0,-9.188589E-2,-1.7004528E0,2.6493807E0,-8.083882E-2,-2.4018269E0,7.9835033E-1,-1.14380196E-1,-1.2867804E0,-2.471934E0,-9.540064E-1,1.4278411E0,-3.481112E0,-3.7681253E0,-3.481112E0,4.224158E0,1.4291862E0,2.8558438E0,-4.0680604E0,-1.3331056E-1,-3.2045615E0,-1.1071479E0,4.5346953E-2,-1.4007705E-1,8.74801E-2,2.6939468E0,-1.7448902E0,1.46515E-1,-4.8542667E-2,1.1349727E0,-1.6365315E-1,-4.402231E-2,1.5341699E0,-3.1834962E0,6.825475E-2,9.669478E-1,-6.3799135E-2,3.7889075E-2,-3.009486E0,-3.6173858E-2,9.130391E-3,3.255526E-2,5.453626E-3,-6.354087E-2,-1.0324683E-1,4.2159468E-2,5.7311874E-2,1.8529649E-1,-1.6603187E-1,2.7765064E-2,-1.4586483E-1,4.050691E-2,9.322873E-2,-3.3087302E-2,7.553246E-4,4.2491686E-2,-8.759765E-2,9.472873E-2,-5.1802643E-2,3.7575716E-3,-1.1747694E-1,-9.217127E-3,1.06595635E-1,-6.643241E-2,-5.384111E-2,9.553653E-2,-8.566056E-2,1.5692556E-2],"split_indices":[7,7,7,0,5,0,8,6,2,3,8,0,8,2,0,1,1,2,8,0,5,1,8,4,4,4,0,7,8,0,0,0,3,8,0,0,0,0,0,2,8,2,0,0,0,2,0,0,0,0,0,0,0,0,0,0,0,0,0,0,0,0,0,0,0,0,0,0,0,0,0,0,0,0,0],"split_type":[0,0,0,0,0,0,0,0,0,0,0,0,0,0,0,0,0,0,0,0,0,0,0,0,0,0,0,0,0,0,0,0,0,0,0,0,0,0,0,0,0,0,0,0,0,0,0,0,0,0,0,0,0,0,0,0,0,0,0,0,0,0,0,0,0,0,0,0,0,0,0,0,0,0,0],"sum_hessian":[7.92E2,7.41E2,5.1E1,7.5E1,6.66E2,4E1,1.1E1,3.1E1,4.4E1,1E1,6.56E2,2E0,3.8E1,9E0,2E0,2.8E1,3E0,2.3E1,2.1E1,3E0,7E0,6.07E2,4.9E1,4E0,3.4E1,6E0,3E0,7E0,2.1E1,1E0,2E0,1.3E1,1E1,1.7E1,4E0,1E0,2E0,5E0,2E0,1.9E1,5.88E2,4.3E1,6E0,3E0,1E0,3.2E1,2E0,1E0,5E0,1E0,2E0,2E0,5E0,8E0,1.3E1,1E0,1.2E1,9E0,1E0,6E0,1.1E1,1E0,1E0,1.8E1,1E0,3E1,5.58E2,2.2E1,2.1E1,5E0,1E0,1E0,3.1E1,1E0,1E0],"tree_param":{"num_deleted":"0","num_feature":"10","num_nodes":"75","size_leaf_vector":"1"}},{"base_weights":[-1.4001521E-3,-2.7976783E-2,3.7785485E-1,6.890878E-2,-1.835754E-1,1.0198442E0,9.0025544E-2,1.5013069E-1,-2.7917698E-1,-2.4058244E-1,1.0276933E0,-5.114905E-2,1.1560324E0,1.0203905E0,-2.0181273E-1,-8.8704437E-1,1.99237E-1,-7.939627E-1,6.604337E-2,-3.263802E-1,3.9329162E-1,1.3381733E0,-4.5329788E-1,3.6534655E-1,1.5148408E0,1.7211486E0,-9.54842E-1,-8.629194E-3,-1.1273679E0,-4.6218884E-1,-1.5889147E-1,3.5342458E-1,-5.5791732E-2,-1.1982943E0,1.9715115E-1,-7.487929E-1,2.9728127E-1,1.3314295E-1,-3.5997796E-1,8.024293E-1,-3.8956845E-1,-2.1634607E-1,1.7076604E0,1.4198024E-3,-6.941449E-2,-3.8695212E-2,5.931967E-1,8.341299E-2,2.0287259E0,7.576729E-1,2.2543374E-1,-1.367994E-1,-6.4269006E-3,2.893774E-1,-4.8457682E-1,-2.2950737E-2,-1.2944563E-1,-8.280074E-2,4.7645014E-2,4.4900604E-2,-4.9308468E-2,-6.928545E-2,2.009221E-2,4.505507E-2,-1.4436164E-1,1.6562627E-1,-5.570485E-2,1.4933608E-3,-1.1325228E-1,5.704223E-2,-3.5591196E-2,4.8491534E-2,-4.274693E-2,-7.929265E-2,1.2010043E-1,-9.864091E-2,1.7766189E-2,-6.101827E-2,2.856636E-2,1.9109692E-1,4.05951E-3,1.1387317E-2,6.845593E-2,2.286334E-1,4.9914658E-2,8.55007E-2,2.3283532E-2,5.864826E-2,-6.8691577E-4,-9.4700776E-2,1.672556E-2],"categories":[],"categories_nodes":[],"categories_segments":[],"categories_sizes":[],"default_left":[0,0,0,0,0,0,0,0,0,0,0,0,0,0,0,0,0,0,0,0,0,0,0,0,0,0,0,0,0,0,0,0,0,0,0,0,0,0,0,0,0,0,0,0,0,0,0,0,0,0,0,0,0,0,0,0,0,0,0,0,0,0,0,0,0,0,0,0,0,0,0,0,0,0,0,0,0,0,0,0,0,0,0,0,0,0,0,0,0,0,0],"id":11,"left_children":[1,3,5,7,9,11,13,15,17,19,21,-1,23,25,27,29,31,33,35,37,39,41,43,45,47,49,51,53,55,57,-1,59,61,63,65,67,69,-1,71,73,75,77,79,-1,-1,-1,81,-1,83,85,-1,-1,-1,87,89,-1,-1,-1,-1,-1,-1,-1,-1,-1,-1,-1,-1,-1,-1,-1,-1,-1,-1,-1,-1,-1,-1,-1,-1,-1,-1,-1,-1,-1,-1,-1,-1,-1,-1,-1,-1],"loss_changes":[8.003471E0,1.1198493E1,9.51692E0,1.2990578E1,1.9926727E1,3.9280987E0,1.0252023E1,1.9123375E1,1.5513596E1,1.4975462E1,6.5842247E0,0E0,3.7021294E0,1.4100867E1,5.1755304E0,4.3349104E0,1.4018443E1,1.42621E1,1.0208916E1,1.3902666E1,1.0882421E1,6.6875706E0,3.476404E-1,1.258007E0,1.8058491E0,1.887949E0,1.0159063E0,3.6861138E0,4.5302248E-1,4.514963E0,0E0,1.8183544E1,2.221749E1,1.0762875E1,1.3027696E1,3.533689E0,7.6964025E0,0E0,1.3721737E1,1.4941422E1,4.2378006E0,7.674364E-1,2.972786E0,0E0,0E0,0E0,1.4100826E-1,0E0,8.2894516E-1,5.2626133E-3,0E0,0E0,0E0,1.4122908E0,3.1726665E0,0E0,0E0,0E0,0E0,0E0,0E0,0E0,0E0,0E0,0E0,0E0,0E0,0E0,0E0,0E0,0E0,0E0,0E0,0E0,0E0,0E0,0E0,0E0,0E0,0E0,0E0,0E0,0E0,0E0,0E0,0E0,0E0,0E0,0E0,0E0,0E0],"parents":[2147483647,0,0,1,1,2,2,3,3,4,4,5,5,6,6,7,7,8,8,9,9,10,10,12,12,13,13,14,14,15,15,16,16,17,17,18,18,19,19,20,20,21,21,22,22,23,23,24,24,25,25,26,26,27,27,28,28,29,29,31,31,32,32,33,33,34,34,35,35,36,36,38,38,39,39,40,40,41,41,42,42,46,46,48,48,49,49,53,53,54,54],"right_children":[2,4,6,8,10,12,14,16,18,20,22,-1,24,26,28,30,32,34,36,38,40,42,44,46,48,50,52,54,56,58,-1,60,62,64,66,68,70,-1,72,74,76,78,80,-1,-1,-1,82,-1,84,86,-1,-1,-1,88,90,-1,-1,-1,-1,-1,-1,-1,-1,-1,-1,-1,-1,-1,-1,-1,-1,-1,-1,-1,-1,-1,-1,-1,-1,-1,-1,-1,-1,-1,-1,-1,-1,-1,-1,-1,-1],"split_conditions":[2.8194027E0,5.0617385E-1,-1.1616149E0,1.8310196E0,3.2371006E0,-3.009486E0,3.0460389E0,-3.481112E0,-9.602825E-2,2.5215907E0,2.5215907E0,-5.114905E-2,1.324856E-1,1.4663596E0,1.3074116E0,-7.157488E-1,7.4341905E-1,7.748605E-1,2.0139527E0,-3.548703E0,5.409297E-1,-2.9927707E0,2.5351505E0,-3.5806444E-1,1.324856E-1,-4.0873492E-1,3.4116254E0,5.0617385E-1,5.266974E-1,1.6438783E0,-1.5889147E-1,2.3411305E0,-1.4166178E0,-1.832812E0,-1.9014187E0,-2.55848E0,7.0906425E-1,1.3314295E-1,-2.8536563E0,-2.9036996E0,-1.3430937E-1,-9.636551E-1,8.341711E-1,1.4198024E-3,-6.941449E-2,-3.8695212E-2,-2.9036996E0,8.341299E-2,5.1151437E-1,-2.1432028E0,2.2543374E-1,-1.367994E-1,-6.4269006E-3,-1.108908E-2,1.4727865E0,-2.2950737E-2,-1.2944563E-1,-8.280074E-2,4.7645014E-2,4.4900604E-2,-4.9308468E-2,-6.928545E-2,2.009221E-2,4.505507E-2,-1.4436164E-1,1.6562627E-1,-5.570485E-2,1.4933608E-3,-1.1325228E-1,5.704223E-2,-3.5591196E-2,4.8491534E-2,-4.274693E-2,-7.929265E-2,1.2010043E-1,-9.864091E-2,1.7766189E-2,-6.101827E-2,2.856636E-2,1.9109692E-1,4.05951E-3,1.1387317E-2,6.845593E-2,2.286334E-1,4.9914658E-2,8.55007E-2,2.3283532E-2,5.864826E-2,-6.8691577E-4,-9.4700776E-2,1.672556E-2],"split_indices":[3,3,2,2,2,2,3,1,9,5,0,0,7,0,9,3,1,1,2,2,1,7,0,1,1,8,0,4,0,4,0,5,2,1,0,8,4,0,6,1,4,0,8,0,0,0,7,0,0,0,0,0,0,8,2,0,0,0,0,0,0,0,0,0,0,0,0,0,0,0,0,0,0,0,0,0,0,0,0,0,0,0,0,0,0,0,0,0,0,0,0],"split_type":[0,0,0,0,0,0,0,0,0,0,0,0,0,0,0,0,0,0,0,0,0,0,0,0,0,0,0,0,0,0,0,0,0,0,0,0,0,0,0,0,0,0,0,0,0,0,0,0,0,0,0,0,0,0,0,0,0,0,0,0,0,0,0,0,0,0,0,0,0,0,0,0,0,0,0,0,0,0,0,0,0,0,0,0,0,0,0,0,0,0,0],"sum_hessian":[7.92E2,7.41E2,5.1E1,4.57E2,2.84E2,1.5E1,3.6E1,3.71E2,8.6E1,2.72E2,1.2E1,1E0,1.4E1,8E0,2.8E1,1.6E1,3.55E2,3.4E1,5.2E1,2.4E2,3.2E1,1E1,2E0,5E0,9E0,6E0,2E0,2.4E1,4E0,1.1E1,5E0,2.21E2,1.34E2,2.4E1,1E1,1.1E1,4.1E1,4E0,2.36E2,2.1E1,1.1E1,2E0,8E0,1E0,1E0,1E0,4E0,5E0,4E0,3E0,3E0,1E0,1E0,1.5E1,9E0,1E0,3E0,8E0,3E0,1.99E2,2.2E1,3.8E1,9.6E1,3E0,2.1E1,3E0,7E0,4E0,7E0,2.9E1,1.2E1,1.7E1,2.19E2,4E0,1.7E1,5E0,6E0,1E0,1E0,7E0,1E0,1E0,3E0,3E0,1E0,2E0,1E0,7E0,8E0,5E0,4E0],"tree_param":{"num_deleted":"0","num_feature":"10","num_nodes":"91","size_leaf_vector":"1"}},{"base_weights":[-9.616097E-4,1.10444715E-2,-7.8327775E-1,-4.8481682E-1,3.0101411E-2,-1.553385E0,-2.0405102E-1,-6.829496E-1,6.0281056E-1,4.6461463E-1,-3.4133033E-3,-3.1225849E-2,-1.7856021E-1,-5.175416E-1,4.909471E-1,-4.145289E-1,-1.4638604E0,-1.2184547E-2,8.144359E-2,7.0091885E-1,-3.345693E-1,-8.123721E-1,1.5459515E-2,-1.4272538E-2,-5.6395974E-2,8.6269006E-2,-1.26269385E-2,-8.830561E-1,2.5623277E-1,-3.7047382E-2,-1.608443E-1,9.242308E-1,6.561962E-2,-7.949339E-1,1.7359093E-1,8.555527E-2,-1.0261673E0,-2.8729743E-1,6.107537E-2,-1.2414614E-1,1.44119775E-2,-2.1015989E-2,5.2445572E-2,1.1621952E-1,9.480881E-3,-4.3728147E-2,6.41401E-2,-9.162595E-2,-3.3490069E-3,7.331624E-2,-4.2937826E-2,1.6091513E-2,-7.026214E-3,-1.2298282E-1,6.264526E-3,-5.9567876E-2,2.3814475E-2,-3.5925232E-2,1.0183921E-2],"categories":[],"categories_nodes":[],"categories_segments":[],"categories_sizes":[],"default_left":[0,0,0,0,0,0,0,0,0,0,0,0,0,0,0,0,0,0,0,0,0,0,0,0,0,0,0,0,0,0,0,0,0,0,0,0,0,0,0,0,0,0,0,0,0,0,0,0,0,0,0,0,0,0,0,0,0,0,0],"id":12,"left_children":[1,3,5,7,9,11,13,15,17,19,21,-1,-1,23,25,27,29,-1,-1,31,33,35,37,-1,-1,-1,-1,39,41,-1,-1,43,45,47,49,51,53,55,57,-1,-1,-1,-1,-1,-1,-1,-1,-1,-1,-1,-1,-1,-1,-1,-1,-1,-1,-1,-1],"loss_changes":[7.456944E0,7.40418E0,5.035831E0,6.6610346E0,1.0981776E1,8.8348484E-1,1.9970883E0,4.633502E0,8.660134E-1,1.0432432E1,1.0714959E1,0E0,0E0,2.3898363E-2,7.972689E-1,6.51167E0,3.5262203E-1,0E0,0E0,5.897892E0,3.1792002E0,3.1593542E0,9.491561E0,0E0,0E0,0E0,0E0,4.5966616E0,1.2360945E0,0E0,0E0,6.0083733E0,3.7552054E0,6.15993E-1,2.6766346E0,5.827575E-2,2.959775E0,1.4725149E1,1.0265685E1,0E0,0E0,0E0,0E0,0E0,0E0,0E0,0E0,0E0,0E0,0E0,0E0,0E0,0E0,0E0,0E0,0E0,0E0,0E0,0E0],"parents":[2147483647,0,0,1,1,2,2,3,3,4,4,5,5,6,6,7,7,8,8,9,9,10,10,13,13,14,14,15,15,16,16,19,19,20,20,21,21,22,22,27,27,28,28,31,31,32,32,33,33,34,34,35,35,36,36,37,37,38,38],"right_children":[2,4,6,8,10,12,14,16,18,20,22,-1,-1,24,26,28,30,-1,-1,32,34,36,38,-1,-1,-1,-1,40,42,-1,-1,44,46,48,50,52,54,56,58,-1,-1,-1,-1,-1,-1,-1,-1,-1,-1,-1,-1,-1,-1,-1,-1,-1,-1,-1,-1],"split_conditions":[4.099182E0,-3.277279E0,-7.380852E-2,1.5341699E0,-2.3319151E0,-2.7409081E0,5.237997E-1,1.8566483E0,-2.7409081E0,1.928581E0,-2.1670113E0,-3.1225849E-2,-1.7856021E-1,-5.6351773E-2,5.543016E-1,-1.1724335E-1,-3.009486E0,-1.2184547E-2,8.144359E-2,9.056345E-1,2.2575855E0,-1.8176361E0,-2.0463483E0,-1.4272538E-2,-5.6395974E-2,8.6269006E-2,-1.26269385E-2,1.0023259E0,-6.9480413E-1,-3.7047382E-2,-1.608443E-1,1.0030822E0,1.6113822E0,8.5790235E-1,-1.6131738E0,-8.534079E-1,2.2575855E0,9.1428894E-1,-2.4727774E0,-1.2414614E-1,1.44119775E-2,-2.1015989E-2,5.2445572E-2,1.1621952E-1,9.480881E-3,-4.3728147E-2,6.41401E-2,-9.162595E-2,-3.3490069E-3,7.331624E-2,-4.2937826E-2,1.6091513E-2,-7.026214E-3,-1.2298282E-1,6.264526E-3,-5.9567876E-2,2.3814475E-2,-3.5925232E-2,1.0183921E-2],"split_indices":[0,9,1,0,9,1,6,2,1,8,9,0,0,1,1,4,0,0,0,3,8,4,4,0,0,0,0,2,2,0,0,1,3,0,4,0,4,2,6,0,0,0,0,0,0,0,0,0,0,0,0,0,0,0,0,0,0,0,0],"split_type":[0,0,0,0,0,0,0,0,0,0,0,0,0,0,0,0,0,0,0,0,0,0,0,0,0,0,0,0,0,0,0,0,0,0,0,0,0,0,0,0,0,0,0,0,0,0,0,0,0,0,0,0,0,0,0,0,0,0,0],"sum_hessian":[7.92E2,7.81E2,1.1E1,2.8E1,7.53E2,4E0,7E0,2.4E1,4E0,5.3E1,7E2,1E0,3E0,5E0,2E0,1.9E1,5E0,1E0,3E0,4.1E1,1.2E1,1.5E1,6.85E2,1E0,4E0,1E0,1E0,1.1E1,8E0,1E0,4E0,3E1,1.1E1,6E0,6E0,3E0,1.2E1,8.9E1,5.96E2,8E0,3E0,3E0,5E0,2.3E1,7E0,6E0,5E0,5E0,1E0,3E0,3E0,2E0,1E0,1E1,2E0,5.6E1,3.3E1,5.2E1,5.44E2],"tree_param":{"num_deleted":"0","num_feature":"10","num_nodes":"59","size_leaf_vector":"1"}},{"base_weights":[-1.4977106E-3,-2.629313E-2,3.5234267E-1,-5.3046346E-2,3.616189E-1,5.796538E-1,-1.0922586E-1,-2.1875057E-2,-4.8234677E-1,1.0713235E0,6.740507E-2,-2.4330665E-1,7.2492415E-1,6.0841614E-1,-4.3204325E-1,1.9289255E-1,-8.1325665E-2,-5.7066244E-1,1.7900865E-1,3.3880857E-1,1.4406309E0,9.352415E-1,-2.2437024E-1,-5.6399155E-2,2.6537544E-1,9.876869E-1,1.8127148E-1,8.2607694E-2,1.1539642E-1,-6.490666E-1,2.1852596E-2,3.2305348E-1,-5.2584404E-1,-8.453799E-1,-4.1773744E-2,-1.2363296E0,-3.2612905E-1,-3.726965E-2,5.5564886E-1,7.5613245E-2,2.1072209E-1,1.5960674E0,-9.1843265E-1,-3.9459553E-2,-1.0300853E0,3.4480818E-2,5.3254995E-3,1.230392E0,5.5433714E-1,-1.4401577E-1,7.8652814E-2,1.5489827E-2,1.819636E-3,3.839016E-2,-8.257296E-1,1.5606275E-1,2.442283E-2,-1.0134208E-1,6.6373765E-2,-1.3610025E-1,6.4154314E-3,9.63988E-2,-9.164576E-3,-5.598272E-2,-1.5046023E-1,4.2022135E-2,-6.857156E-2,1.03087565E-2,6.430174E-2,6.9805615E-2,2.0950618E-1,-1.3115016E-1,-6.6147507E-3,1.6116818E-2,-5.2106123E-2,-2.2312397E-2,-1.1760447E-1,1.352462E-1,4.1336123E-2,1.5787335E-2,1.01044856E-1,9.182038E-2,-4.2693343E-2,-5.0271675E-3,1.0785691E-2,-5.451204E-3,-1.0737168E-1],"categories":[],"categories_nodes":[],"categories_segments":[],"categories_sizes":[],"default_left":[0,0,0,0,0,0,0,0,0,0,0,0,0,0,0,0,0,0,0,0,0,0,0,0,0,0,0,0,0,0,0,0,0,0,0,0,0,0,0,0,0,0,0,0,0,0,0,0,0,0,0,0,0,0,0,0,0,0,0,0,0,0,0,0,0,0,0,0,0,0,0,0,0,0,0,0,0,0,0,0,0,0,0,0,0,0,0],"id":13,"left_children":[1,3,5,7,9,11,13,15,17,19,21,23,25,27,29,31,33,35,-1,37,39,41,43,-1,45,47,49,-1,51,53,-1,55,57,59,61,63,65,-1,67,-1,-1,69,71,73,75,-1,-1,77,79,81,-1,-1,-1,83,85,-1,-1,-1,-1,-1,-1,-1,-1,-1,-1,-1,-1,-1,-1,-1,-1,-1,-1,-1,-1,-1,-1,-1,-1,-1,-1,-1,-1,-1,-1,-1,-1],"loss_changes":[6.9667454E0,7.7195797E0,5.519137E0,9.289834E0,9.950426E0,4.360688E0,4.432874E0,8.30216E0,1.0454031E1,3.2992249E0,9.072305E0,1.1284295E0,4.106511E0,5.485399E-1,1.9772909E0,1.3360627E1,1.5346568E1,7.0845747E0,0E0,1.1327863E0,2.5131817E0,1.2490482E1,3.9819572E0,0E0,3.2185167E-2,1.4214725E0,2.2789772E0,0E0,8.700158E-3,1.2461815E0,0E0,1.132509E1,1.3432917E1,1.1811726E1,2.441564E1,1.3355293E0,9.681366E0,0E0,1.3141072E-1,0E0,0E0,1.6742477E0,9.182675E-1,2.3062994E0,3.2651472E-1,0E0,0E0,6.3776207E-1,1.4679618E0,2.7961771E0,0E0,0E0,0E0,2.3899298E-2,1.4714856E0,0E0,0E0,0E0,0E0,0E0,0E0,0E0,0E0,0E0,0E0,0E0,0E0,0E0,0E0,0E0,0E0,0E0,0E0,0E0,0E0,0E0,0E0,0E0,0E0,0E0,0E0,0E0,0E0,0E0,0E0,0E0,0E0],"parents":[2147483647,0,0,1,1,2,2,3,3,4,4,5,5,6,6,7,7,8,8,9,9,10,10,11,11,12,12,13,13,14,14,15,15,16,16,17,17,19,19,20,20,21,21,22,22,24,24,25,25,26,26,28,28,29,29,31,31,32,32,33,33,34,34,35,35,36,36,38,38,41,41,42,42,43,43,44,44,47,47,48,48,49,49,53,53,54,54],"right_children":[2,4,6,8,10,12,14,16,18,20,22,24,26,28,30,32,34,36,-1,38,40,42,44,-1,46,48,50,-1,52,54,-1,56,58,60,62,64,66,-1,68,-1,-1,70,72,74,76,-1,-1,78,80,82,-1,-1,-1,84,86,-1,-1,-1,-1,-1,-1,-1,-1,-1,-1,-1,-1,-1,-1,-1,-1,-1,-1,-1,-1,-1,-1,-1,-1,-1,-1,-1,-1,-1,-1,-1,-1],"split_conditions":[2.8194027E0,2.8194027E0,3.6062205E0,2.1532674E0,-1.1616149E0,-2.245459E0,-7.092177E-1,-1.505E0,3.7790406E0,1.324856E-1,3.0460389E0,1.4291862E0,8.5790235E-1,-1.1952624E-1,8.0321103E-1,1.9900831E0,-1.3160108E0,-1.267033E0,1.7900865E-1,-3.5806444E-1,1.324856E-1,1.4663596E0,1.3074116E0,-5.6399155E-2,-7.380852E-2,6.825475E-2,1.5853367E0,8.2607694E-2,-1.1276617E0,-2.471934E0,2.1852596E-2,-3.277279E0,1.181867E0,9.056345E-1,-1.1071479E0,-1.0315558E0,-2.1442111E-1,-3.726965E-2,-2.9036996E0,7.5613245E-2,2.1072209E-1,-4.0873492E-1,3.4116254E0,4.099182E0,5.266974E-1,3.4480818E-2,5.3254995E-3,6.9011635E-1,1.8566483E0,-3.009486E0,7.8652814E-2,1.5489827E-2,1.819636E-3,-1.8840387E0,-8.6262685E-1,1.5606275E-1,2.442283E-2,-1.0134208E-1,6.6373765E-2,-1.3610025E-1,6.4154314E-3,9.63988E-2,-9.164576E-3,-5.598272E-2,-1.5046023E-1,4.2022135E-2,-6.857156E-2,1.03087565E-2,6.430174E-2,6.9805615E-2,2.0950618E-1,-1.3115016E-1,-6.6147507E-3,1.6116818E-2,-5.2106123E-2,-2.2312397E-2,-1.1760447E-1,1.352462E-1,4.1336123E-2,1.5787335E-2,1.01044856E-1,9.182038E-2,-4.2693343E-2,-5.0271675E-3,1.0785691E-2,-5.451204E-3,-1.0737168E-1],"split_indices":[7,3,7,7,2,8,6,3,1,7,3,4,4,1,0,6,3,2,0,1,1,0,9,0,0,3,1,0,0,2,0,2,0,1,3,4,2,0,7,0,0,8,0,3,0,0,0,0,2,6,0,0,0,0,5,0,0,0,0,0,0,0,0,0,0,0,0,0,0,0,0,0,0,0,0,0,0,0,0,0,0,0,0,0,0,0,0],"split_type":[0,0,0,0,0,0,0,0,0,0,0,0,0,0,0,0,0,0,0,0,0,0,0,0,0,0,0,0,0,0,0,0,0,0,0,0,0,0,0,0,0,0,0,0,0,0,0,0,0,0,0,0,0,0,0,0,0,0,0,0,0,0,0,0,0,0,0,0,0,0,0,0,0,0,0,0,0,0,0,0,0,0,0,0,0,0,0],"sum_hessian":[7.92E2,7.41E2,5.1E1,6.94E2,4.7E1,3.4E1,1.7E1,6.48E2,4.6E1,1.3E1,3.4E1,5E0,2.9E1,5E0,1.2E1,1.4E2,5.08E2,4.5E1,1E0,5E0,8E0,8E0,2.6E1,3E0,2E0,1.9E1,1E1,3E0,2E0,9E0,3E0,1.19E2,2.1E1,2.4E1,4.84E2,1.1E1,3.4E1,1E0,4E0,5E0,3E0,6E0,2E0,2.2E1,4E0,1E0,1E0,1.1E1,8E0,7E0,3E0,1E0,1E0,2E0,7E0,6E0,1.13E2,1.5E1,6E0,1.5E1,9E0,2.2E1,4.62E2,4E0,7E0,1.1E1,2.3E1,1E0,3E0,3E0,3E0,1E0,1E0,1.6E1,6E0,1E0,3E0,9E0,2E0,5E0,3E0,1E0,6E0,1E0,1E0,2E0,5E0],"tree_param":{"num_deleted":"0","num_feature":"10","num_nodes":"87","size_leaf_vector":"1"}},{"base_weights":[-3.924458E-4,1.2358567E-2,-6.6256887E-1,2.3802707E-2,-7.210963E-1,-1.023061E0,2.6302782E-1,-3.9854187E-1,4.3909326E-2,-1.432672E0,-1.862244E-1,-1.6591476E-2,-1.0921843E-1,6.3570715E-2,-1.9732745E-1,6.276964E-1,-6.775192E-1,6.575102E-1,2.7565295E-2,-2.9206326E-2,-1.6448085E-1,4.2689952E-1,-4.6174895E-2,-3.193363E-2,2.3345116E-3,1.0700136E0,-4.6617027E-2,-1.4293362E-1,-1.2018951E0,1.1635519E0,-1.8374121E-1,-3.4211716E-1,6.437786E-2,7.7135615E-2,-1.3100683E-2,4.7955327E-2,1.2453556E-1,-9.3362354E-2,3.4577366E-2,1.5365111E-2,-1.3179873E-1,1.692166E-2,1.6395676E-1,-1.0034826E-1,5.088001E-2,-7.268279E-2,4.428551E-2,4.8380796E-2,1.8693814E-3],"categories":[],"categories_nodes":[],"categories_segments":[],"categories_sizes":[],"default_left":[0,0,0,0,0,0,0,0,0,0,0,0,0,0,0,0,0,0,0,0,0,0,0,0,0,0,0,0,0,0,0,0,0,0,0,0,0,0,0,0,0,0,0,0,0,0,0,0,0],"id":14,"left_children":[1,3,5,7,9,11,13,15,17,19,21,-1,-1,-1,23,25,27,29,31,-1,-1,33,-1,-1,-1,35,-1,37,39,41,43,45,47,-1,-1,-1,-1,-1,-1,-1,-1,-1,-1,-1,-1,-1,-1,-1,-1],"loss_changes":[6.70382E0,6.555903E0,5.2741494E0,6.539295E0,4.300425E0,4.7052574E-1,9.8326695E-1,1.0445678E1,7.3429494E0,7.29434E-1,1.5485661E0,0E0,0E0,0E0,8.822696E-2,4.3694973E0,7.6772757E0,8.30225E0,9.76604E0,0E0,0E0,6.775765E-1,0E0,0E0,0E0,2.3980618E-2,0E0,6.119061E0,2.4056644E0,5.4023895E0,5.05221E0,1.9951048E1,1.24841E1,0E0,0E0,0E0,0E0,0E0,0E0,0E0,0E0,0E0,0E0,0E0,0E0,0E0,0E0,0E0,0E0],"parents":[2147483647,0,0,1,1,2,2,3,3,4,4,5,5,6,6,7,7,8,8,9,9,10,10,14,14,15,15,16,16,17,17,18,18,21,21,25,25,27,27,28,28,29,29,30,30,31,31,32,32],"right_children":[2,4,6,8,10,12,14,16,18,20,22,-1,-1,-1,24,26,28,30,32,-1,-1,34,-1,-1,-1,36,-1,38,40,42,44,46,48,-1,-1,-1,-1,-1,-1,-1,-1,-1,-1,-1,-1,-1,-1,-1,-1],"split_conditions":[3.7790406E0,4.099182E0,-1.1724335E-1,-3.1834962E0,-7.380852E-2,-2.471934E0,3.2711232E-3,-7.696141E-1,-3.548703E0,-2.7409081E0,-6.07603E-1,-1.6591476E-2,-1.0921843E-1,6.3570715E-2,-1.6781648E0,6.9386595E-1,-1.108908E-2,4.1777217E-1,-2.254439E0,-2.9206326E-2,-1.6448085E-1,4.4249487E0,-4.6174895E-2,-3.193363E-2,2.3345116E-3,3.99901E-1,-4.6617027E-2,-6.162625E-1,-2.519106E0,-1.1071479E0,-1.6013799E0,1.5083219E0,-1.6013799E0,7.7135615E-2,-1.3100683E-2,4.7955327E-2,1.2453556E-1,-9.3362354E-2,3.4577366E-2,1.5365111E-2,-1.3179873E-1,1.692166E-2,1.6395676E-1,-1.0034826E-1,5.088001E-2,-7.268279E-2,4.428551E-2,4.8380796E-2,1.8693814E-3],"split_indices":[5,0,4,8,1,0,2,1,6,1,9,0,0,0,0,5,7,1,6,0,0,0,0,0,0,0,0,2,4,8,4,2,6,0,0,0,0,0,0,0,0,0,0,0,0,0,0,0,0],"split_type":[0,0,0,0,0,0,0,0,0,0,0,0,0,0,0,0,0,0,0,0,0,0,0,0,0,0,0,0,0,0,0,0,0,0,0,0,0,0,0,0,0,0,0,0,0,0,0,0,0],"sum_hessian":[7.92E2,7.78E2,1.4E1,7.67E2,1.1E1,1E1,4E0,3.4E1,7.33E2,4E0,7E0,1E0,9E0,2E0,2E0,7E0,2.7E1,1.8E1,7.15E2,1E0,3E0,2E0,5E0,1E0,1E0,5E0,2E0,1.4E1,1.3E1,1.1E1,7E0,6.4E1,6.51E2,1E0,1E0,2E0,3E0,5E0,9E0,1E0,1.2E1,4E0,7E0,3E0,4E0,4.3E1,2.1E1,6.3E1,5.88E2],"tree_param":{"num_deleted":"0","num_feature":"10","num_nodes":"49","size_leaf_vector":"1"}},{"base_weights":[-5.596945E-4,5.513132E-1,-1.4819254E-2,8.615439E-2,1.6223248E0,-8.3419365E-1,-4.089106E-3,8.480081E-1,-3.795733E-1,1.8388154E-1,2.6993606E-2,-1.3147733E0,-9.0659305E-2,-4.2742392E-1,1.4372479E-2,1.3387768E-1,2.6792958E-1,-9.2390364E-1,3.495378E-1,-3.3512786E-3,-1.5643229E-1,-6.551382E-2,5.0403934E-2,6.0063034E-1,-6.877684E-1,-8.924652E-2,1.0500244E-1,3.6825996E-2,-1.6530767E-3,-1.22667454E-1,-2.1224124E-2,8.115026E-2,7.11544E-2,1.0027589E-1,-2.6979396E-1,4.524327E-1,-8.5616124E-1,-5.025379E-3,-5.826819E-1,4.5304772E-1,2.1228166E-2,1.190418E-2,2.8839149E-3,1.1004987E-2,-5.1474083E-2,-1.2457445E-2,6.862932E-2,-1.0053428E-1,-1.1803883E-2,-4.589304E-2,1.15777785E-2,3.768662E-2,-9.30006E-2,-8.9291055E-3,8.08688E-2,4.6572592E-2,-7.8010666E-3],"categories":[],"categories_nodes":[],"categories_segments":[],"categories_sizes":[],"default_left":[0,0,0,0,0,0,0,0,0,0,0,0,0,0,0,0,0,0,0,0,0,0,0,0,0,0,0,0,0,0,0,0,0,0,0,0,0,0,0,0,0,0,0,0,0,0,0,0,0,0,0,0,0,0,0,0,0],"id":15,"left_children":[1,3,5,7,9,11,13,15,17,-1,-1,19,21,23,25,-1,27,29,31,-1,-1,-1,-1,33,35,37,39,-1,-1,-1,-1,41,-1,-1,43,45,47,49,51,53,55,-1,-1,-1,-1,-1,-1,-1,-1,-1,-1,-1,-1,-1,-1,-1,-1],"loss_changes":[6.2486553E0,9.824039E0,6.8016033E0,5.6441264E0,1.2603121E0,3.4540787E0,5.984948E0,1.3494086E0,4.291712E0,0E0,0E0,1.8660021E0,2.0086896E0,8.977838E0,6.9023542E0,0E0,1.2024769E-1,1.0324731E0,4.2804778E-1,0E0,0E0,0E0,0E0,2.7206953E0,5.3793993E0,1.4251361E1,1.1420021E1,0E0,0E0,0E0,0E0,4.4955313E-3,0E0,0E0,3.3577186E-1,6.2525123E-1,2.4139595E0,1.6174084E1,1.7014194E1,1.4730902E1,1.4019656E1,0E0,0E0,0E0,0E0,0E0,0E0,0E0,0E0,0E0,0E0,0E0,0E0,0E0,0E0,0E0,0E0],"parents":[2147483647,0,0,1,1,2,2,3,3,4,4,5,5,6,6,7,7,8,8,11,11,12,12,13,13,14,14,16,16,17,17,18,18,23,23,24,24,25,25,26,26,31,31,34,34,35,35,36,36,37,37,38,38,39,39,40,40],"right_children":[2,4,6,8,10,12,14,16,18,-1,-1,20,22,24,26,-1,28,30,32,-1,-1,-1,-1,34,36,38,40,-1,-1,-1,-1,42,-1,-1,44,46,48,50,52,54,56,-1,-1,-1,-1,-1,-1,-1,-1,-1,-1,-1,-1,-1,-1,-1,-1],"split_conditions":[-3.548703E0,1.2421525E0,-3.7681253E0,-1.6424845E0,2.1386487E0,4.8052022E-1,-3.1834962E0,-3.8295147E-1,1.9029356E0,1.8388154E-1,2.6993606E-2,-3.009486E0,-1.505E0,-8.534079E-1,-1.108908E-2,1.3387768E-1,-8.6898994E-1,-5.991301E-1,1.403209E0,-3.3512786E-3,-1.5643229E-1,-6.551382E-2,5.0403934E-2,6.1035305E-1,-7.696141E-1,-3.4966895E-1,5.154768E-1,3.6825996E-2,-1.6530767E-3,-1.22667454E-1,-2.1224124E-2,5.7673033E-2,7.11544E-2,1.0027589E-1,-2.471934E0,-2.270617E0,2.1386487E0,-1.6048213E0,-1.237394E0,-5.96014E-1,-1.6424845E0,1.190418E-2,2.8839149E-3,1.1004987E-2,-5.1474083E-2,-1.2457445E-2,6.862932E-2,-1.0053428E-1,-1.1803883E-2,-4.589304E-2,1.15777785E-2,3.768662E-2,-9.30006E-2,-8.9291055E-3,8.08688E-2,4.6572592E-2,-7.8010666E-3],"split_indices":[7,2,5,6,0,7,8,1,1,0,0,3,0,3,7,0,0,3,0,0,0,0,0,1,1,7,7,0,0,0,0,0,0,0,0,0,1,9,8,6,5,0,0,0,0,0,0,0,0,0,0,0,0,0,0,0,0],"split_type":[0,0,0,0,0,0,0,0,0,0,0,0,0,0,0,0,0,0,0,0,0,0,0,0,0,0,0,0,0,0,0,0,0,0,0,0,0,0,0,0,0,0,0,0,0,0,0,0,0,0,0,0,0,0,0,0,0],"sum_hessian":[7.92E2,1.9E1,7.73E2,1.4E1,5E0,9E0,7.64E2,5E0,9E0,4E0,1E0,5E0,4E0,3.1E1,7.33E2,2E0,3E0,5E0,4E0,1E0,4E0,2E0,2E0,6E0,2.5E1,3.42E2,3.91E2,2E0,1E0,3E0,2E0,3E0,1E0,4E0,2E0,3E0,2.2E1,2.93E2,4.9E1,7.5E1,3.16E2,1E0,2E0,1E0,1E0,1E0,2E0,1.8E1,4E0,6.1E1,2.32E2,1.3E1,3.6E1,3E1,4.5E1,5.7E1,2.59E2],"tree_param":{"num_deleted":"0","num_feature":"10","num_nodes":"57","size_leaf_vector":"1"}},{"base_weights":[-2.8707273E-4,2.627844E-1,-2.8132679E-2,7.661885E-1,-6.412851E-2,-4.4934526E-1,3.3901338E-3,9.88407E-1,-5.425855E-1,-4.4405413E-1,3.5162234E-1,-7.638197E-1,5.0445276E-1,-6.7335546E-1,2.2068096E-2,7.070785E-2,1.2601813E0,4.4489723E-2,-9.006806E-2,-1.1088041E0,-6.600686E-2,9.353075E-2,1.0672933E0,4.09058E-1,-9.539241E-1,-2.6545778E-1,6.68569E-1,-1.0843209E0,6.120188E-1,4.825512E-1,-9.621525E-3,5.8670104E-1,-8.128501E-2,1.4326383E0,-1.00825034E-1,-1.3830364E-3,-1.4250126E0,4.6847528E-1,-7.258587E-1,5.6117237E-1,-5.611678E-1,1.723667E-2,1.21180534E-1,5.8475286E-1,3.8445577E-2,-1.2376324E0,-1.7763197E-1,8.5751154E-4,-4.0676177E-2,8.642085E-1,2.6095996E-2,-1.8513533E-1,-1.4254817E0,9.000535E-2,-2.7005995E-2,-2.1785155E-1,1.0169303E0,2.8103998E-2,-4.2441362E-1,1.2703091E-2,6.6986084E-2,1.6454457E-1,2.2324892E-2,1.1308971E-2,-1.1516427E-2,-1.760389E-1,2.9362336E-2,8.529845E-2,-8.66308E-3,-9.3518965E-2,3.6972903E-2,-4.8170846E-2,8.464468E-2,1.109177E-3,-6.4450376E-2,6.6071406E-2,1.784346E-2,-4.1928827E-3,9.959719E-3,-6.793567E-2,-1.739295E-1,1.08281605E-1,-8.72512E-2,2.7916173E-2,1.04239486E-1,2.2402486E-2,-5.3258378E-2,-1.6973256E-1,-5.933843E-2,-4.883687E-2,1.3876961E-1,1.8285836E-1,7.070962E-2,2.1648612E-2,-5.1612253E-3,-9.012023E-2,1.952075E-2],"categories":[],"categories_nodes":[],"categories_segments":[],"categories_sizes":[],"default_left":[0,0,0,0,0,0,0,0,0,0,0,0,0,0,0,0,0,0,0,0,0,0,0,0,0,0,0,0,0,0,0,0,0,0,0,0,0,0,0,0,0,0,0,0,0,0,0,0,0,0,0,0,0,0,0,0,0,0,0,0,0,0,0,0,0,0,0,0,0,0,0,0,0,0,0,0,0,0,0,0,0,0,0,0,0,0,0,0,0,0,0,0,0,0,0,0,0],"id":16,"left_children":[1,3,5,7,9,11,13,15,17,19,21,23,25,27,29,31,33,-1,-1,35,37,39,41,43,45,47,49,51,53,55,57,59,-1,61,-1,63,65,67,69,71,73,-1,-1,75,77,79,81,-1,-1,83,-1,85,87,-1,-1,89,91,93,95,-1,-1,-1,-1,-1,-1,-1,-1,-1,-1,-1,-1,-1,-1,-1,-1,-1,-1,-1,-1,-1,-1,-1,-1,-1,-1,-1,-1,-1,-1,-1,-1,-1,-1,-1,-1,-1,-1],"loss_changes":[5.8164225E0,1.2556398E1,9.534987E0,9.261311E0,7.579996E0,1.5382565E1,8.471173E0,6.395479E0,2.1687737E0,6.2094836E0,4.148474E0,8.863043E0,1.8200898E0,1.0172024E1,9.518974E0,3.668269E0,9.268597E0,0E0,0E0,3.1496115E0,6.33559E0,5.8258686E0,5.67091E-1,3.6820698E-1,7.048094E0,1.19653866E-1,6.5166426E-1,4.0308285E0,1.5134149E0,1.5941325E1,9.573008E0,1.0603714E-1,0E0,4.522629E0,0E0,5.2098446E-2,4.5516243E0,2.208329E0,2.1804905E0,3.6803205E0,3.8866687E-1,0E0,0E0,5.5634975E-3,1.8921068E-2,5.539982E0,9.703371E0,0E0,0E0,4.38735E-1,0E0,8.301223E-1,1.2548409E0,0E0,0E0,8.929942E0,4.742487E0,8.435775E0,1.5242764E1,0E0,0E0,0E0,0E0,0E0,0E0,0E0,0E0,0E0,0E0,0E0,0E0,0E0,0E0,0E0,0E0,0E0,0E0,0E0,0E0,0E0,0E0,0E0,0E0,0E0,0E0,0E0,0E0,0E0,0E0,0E0,0E0,0E0,0E0,0E0,0E0,0E0,0E0],"parents":[2147483647,0,0,1,1,2,2,3,3,4,4,5,5,6,6,7,7,8,8,9,9,10,10,11,11,12,12,13,13,14,14,15,15,16,16,19,19,20,20,21,21,22,22,23,23,24,24,25,25,26,26,27,27,28,28,29,29,30,30,31,31,33,33,35,35,36,36,37,37,38,38,39,39,40,40,43,43,44,44,45,45,46,46,49,49,51,51,52,52,55,55,56,56,57,57,58,58],"right_children":[2,4,6,8,10,12,14,16,18,20,22,24,26,28,30,32,34,-1,-1,36,38,40,42,44,46,48,50,52,54,56,58,60,-1,62,-1,64,66,68,70,72,74,-1,-1,76,78,80,82,-1,-1,84,-1,86,88,-1,-1,90,92,94,96,-1,-1,-1,-1,-1,-1,-1,-1,-1,-1,-1,-1,-1,-1,-1,-1,-1,-1,-1,-1,-1,-1,-1,-1,-1,-1,-1,-1,-1,-1,-1,-1,-1,-1,-1,-1,-1,-1],"split_conditions":[-2.416746E0,-2.1173768E-2,-1.8343453E0,1.5083219E0,-9.188589E-2,1.0030822E0,-3.481112E0,-1.2867804E0,-1.6048213E0,8.647168E-1,1.4278411E0,-2.1929708E0,-1.948081E0,1.2527139E0,-2.4727774E0,-2.310373E0,2.1386487E0,4.4489723E-2,-9.006806E-2,-3.829438E0,-9.540064E-1,2.2877503E-2,3.2711232E-3,-2.23382E0,1.9294574E0,1.4537745E0,2.973072E-1,-4.656999E-1,6.6539323E-1,-6.3320655E-1,2.5351505E0,-3.481112E0,-8.128501E-2,1.33228E0,-1.00825034E-1,5.7673033E-2,2.6939468E0,1.5341699E0,4.1699207E-1,-4.0680604E0,1.324856E-1,1.723667E-2,1.21180534E-1,2.055868E-1,-2.7409081E0,-2.1161962E0,-1.1753125E0,8.5751154E-4,-4.0676177E-2,-2.1092577E0,2.6095996E-2,-1.1276617E0,8.341711E-1,9.000535E-2,-2.7005995E-2,2.5351505E0,-2.9665977E-1,-8.977723E-1,6.825475E-2,1.2703091E-2,6.6986084E-2,1.6454457E-1,2.2324892E-2,1.1308971E-2,-1.1516427E-2,-1.760389E-1,2.9362336E-2,8.529845E-2,-8.66308E-3,-9.3518965E-2,3.6972903E-2,-4.8170846E-2,8.464468E-2,1.109177E-3,-6.4450376E-2,6.6071406E-2,1.784346E-2,-4.1928827E-3,9.959719E-3,-6.793567E-2,-1.739295E-1,1.08281605E-1,-8.72512E-2,2.7916173E-2,1.04239486E-1,2.2402486E-2,-5.3258378E-2,-1.6973256E-1,-5.933843E-2,-4.883687E-2,1.3876961E-1,1.8285836E-1,7.070962E-2,2.1648612E-2,-5.1612253E-3,-9.012023E-2,1.952075E-2],"split_indices":[7,0,7,2,2,0,5,1,0,0,8,4,4,0,5,1,6,0,0,7,2,8,0,7,2,0,4,2,1,9,8,0,0,1,0,0,3,0,3,9,0,0,0,1,0,7,5,0,0,1,0,3,2,0,0,6,9,0,2,0,0,0,0,0,0,0,0,0,0,0,0,0,0,0,0,0,0,0,0,0,0,0,0,0,0,0,0,0,0,0,0,0,0,0,0,0,0],"split_type":[0,0,0,0,0,0,0,0,0,0,0,0,0,0,0,0,0,0,0,0,0,0,0,0,0,0,0,0,0,0,0,0,0,0,0,0,0,0,0,0,0,0,0,0,0,0,0,0,0,0,0,0,0,0,0,0,0,0,0,0,0,0,0,0,0,0,0,0,0,0,0,0,0,0,0,0,0,0,0,0,0,0,0,0,0,0,0,0,0,0,0,0,0,0,0,0,0],"sum_hessian":[7.92E2,7.5E1,7.17E2,2.9E1,4.6E1,4.9E1,6.68E2,2.5E1,4E0,2.4E1,2.2E1,3.7E1,1.2E1,1.7E1,6.51E2,6E0,1.9E1,1E0,3E0,8E0,1.6E1,1.7E1,5E0,5E0,3.2E1,2E0,1E1,1.3E1,4E0,4.1E1,6.1E2,4E0,2E0,1.8E1,1E0,2E0,6E0,9E0,7E0,1E1,7E0,1E0,4E0,3E0,2E0,2.3E1,9E0,1E0,1E0,6E0,4E0,4E0,9E0,3E0,1E0,1.8E1,2.3E1,5.6E2,5E1,1E0,3E0,1.5E1,3E0,1E0,1E0,5E0,1E0,5E0,4E0,6E0,1E0,2E0,8E0,1E0,6E0,2E0,1E0,1E0,1E0,1.2E1,1.1E1,3E0,6E0,2E0,4E0,2E0,2E0,6E0,3E0,1.6E1,2E0,5E0,1.8E1,1.66E2,3.94E2,2.8E1,2.2E1],"tree_param":{"num_deleted":"0","num_feature":"10","num_nodes":"97","size_leaf_vector":"1"}},{"base_weights":[-1.2801787E-4,-2.2356171E-2,3.170531E-1,-1.3415285E0,-1.5185609E-2,5.220474E-1,-9.916102E-2,-1.5407036E-1,-3.7200168E-2,-3.0071728E-3,-6.950731E-1,-2.1696565E-1,6.524485E-1,5.408565E-1,-3.8692597E-1,6.282677E-2,-1.1939415E-1,7.551312E-1,-1.0273949E0,-5.2007493E-2,2.5950193E-1,9.6838653E-1,2.7195126E-1,8.944356E-2,1.404581E-1,-6.6956383E-1,5.4412205E-2,6.656885E-1,-9.783605E-3,-9.026553E-1,-3.3326153E-2,9.192156E-2,2.1348113E-2,-1.2125931E0,4.122932E-2,3.3311423E-2,5.6138695E-3,9.823406E-3,1.0198478E0,-5.695514E-2,7.748034E-1,1.861942E-2,1.624927E-4,-9.083277E-1,3.1151906E-2,2.0069441E-1,-3.3849943E-2,3.653868E-2,1.5861952E-1,-9.730084E-2,1.3906889E-3,1.7143193E-1,-1.075907E-1,-7.6763146E-2,6.0351067E-3,-1.4300984E-1,-2.2838108E-2,1.14225104E-1,3.976761E-2,2.3129543E-2,-8.066382E-2,9.7438924E-2,2.5042115E-2,-1.6756834E-2,-1.0229659E-1,-5.5616545E-3,1.0234441E-2,2.3197452E-2,3.7787005E-3],"categories":[],"categories_nodes":[],"categories_segments":[],"categories_sizes":[],"default_left":[0,0,0,0,0,0,0,0,0,0,0,0,0,0,0,0,0,0,0,0,0,0,0,0,0,0,0,0,0,0,0,0,0,0,0,0,0,0,0,0,0,0,0,0,0,0,0,0,0,0,0,0,0,0,0,0,0,0,0,0,0,0,0,0,0,0,0,0,0],"id":17,"left_children":[1,3,5,7,9,11,13,-1,-1,15,17,19,21,23,25,27,29,31,33,-1,35,37,39,-1,41,43,45,47,49,51,53,-1,-1,55,-1,-1,-1,-1,57,59,61,-1,-1,63,65,67,-1,-1,-1,-1,-1,-1,-1,-1,-1,-1,-1,-1,-1,-1,-1,-1,-1,-1,-1,-1,-1,-1,-1],"loss_changes":[5.5980163E0,6.99836E0,4.4884863E0,1.9927835E-1,6.116805E0,3.5144424E0,3.524414E0,0E0,0E0,5.5779305E0,7.040966E0,1.0014908E0,3.343052E0,7.23804E-1,1.6580378E0,2.0361431E1,1.7699724E1,7.039392E-2,3.432848E0,0E0,2.6209489E-2,6.1628246E-1,2.5249987E0,0E0,2.5096193E-2,1.366741E0,4.1279086E-1,1.3241915E1,9.506349E0,1.36327305E1,1.6417795E1,0E0,0E0,1.814106E0,0E0,0E0,0E0,0E0,6.880903E-1,2.3475373E0,3.8394785E-1,0E0,0E0,3.38099E-1,2.4223829E-2,1.6713172E-2,0E0,0E0,0E0,0E0,0E0,0E0,0E0,0E0,0E0,0E0,0E0,0E0,0E0,0E0,0E0,0E0,0E0,0E0,0E0,0E0,0E0,0E0,0E0],"parents":[2147483647,0,0,1,1,2,2,3,3,4,4,5,5,6,6,9,9,10,10,11,11,12,12,13,13,14,14,15,15,16,16,17,17,18,18,20,20,21,21,22,22,24,24,25,25,26,26,27,27,28,28,29,29,30,30,33,33,38,38,39,39,40,40,43,43,44,44,45,45],"right_children":[2,4,6,8,10,12,14,-1,-1,16,18,20,22,24,26,28,30,32,34,-1,36,38,40,-1,42,44,46,48,50,52,54,-1,-1,56,-1,-1,-1,-1,58,60,62,-1,-1,64,66,68,-1,-1,-1,-1,-1,-1,-1,-1,-1,-1,-1,-1,-1,-1,-1,-1,-1,-1,-1,-1,-1,-1,-1],"split_conditions":[2.8194027E0,-4.0680604E0,3.6062205E0,-2.8064995E0,2.6354914E0,-2.245459E0,-7.092177E-1,-1.5407036E-1,-3.7200168E-2,7.4341905E-1,-1.0715289E0,1.4291862E0,4.4132832E-1,4.099182E0,1.6245848E-1,-2.3319151E0,9.056345E-1,-2.2427075E0,1.181867E0,-5.2007493E-2,-7.380852E-2,-1.429957E0,1.5853367E0,8.944356E-2,-9.636551E-1,-4.523029E-1,1.5853367E0,-1.0695367E-1,-2.2298315E0,-4.0680604E0,-2.2298315E0,9.192156E-2,2.1348113E-2,2.6939468E0,4.122932E-2,3.3311423E-2,5.6138695E-3,9.823406E-3,2.0458553E0,1.6113822E0,1.9294574E0,1.861942E-2,1.624927E-4,-2.2298315E0,-1.8840387E0,-8.388612E-1,-3.3849943E-2,3.653868E-2,1.5861952E-1,-9.730084E-2,1.3906889E-3,1.7143193E-1,-1.075907E-1,-7.6763146E-2,6.0351067E-3,-1.4300984E-1,-2.2838108E-2,1.14225104E-1,3.976761E-2,2.3129543E-2,-8.066382E-2,9.7438924E-2,2.5042115E-2,-1.6756834E-2,-1.0229659E-1,-5.5616545E-3,1.0234441E-2,2.3197452E-2,3.7787005E-3],"split_indices":[7,4,7,2,7,8,6,0,0,1,8,4,4,7,0,2,1,0,1,0,0,0,1,0,0,1,1,1,2,7,2,0,0,7,0,0,0,0,1,5,1,0,0,3,0,1,0,0,0,0,0,0,0,0,0,0,0,0,0,0,0,0,0,0,0,0,0,0,0],"split_type":[0,0,0,0,0,0,0,0,0,0,0,0,0,0,0,0,0,0,0,0,0,0,0,0,0,0,0,0,0,0,0,0,0,0,0,0,0,0,0,0,0,0,0,0,0,0,0,0,0,0,0,0,0,0,0,0,0,0,0,0,0,0,0,0,0,0,0,0,0],"sum_hessian":[7.92E2,7.41E2,5.1E1,3E0,7.38E2,3.4E1,1.7E1,2E0,1E0,7.26E2,1.2E1,5E0,2.9E1,5E0,1.2E1,4.64E2,2.62E2,2E0,1E1,3E0,2E0,1.5E1,1.4E1,2E0,3E0,7E0,5E0,4.9E1,4.15E2,2.5E1,2.37E2,1E0,1E0,9E0,1E0,1E0,1E0,1E0,1.4E1,9E0,5E0,2E0,1E0,5E0,2E0,4E0,1E0,3.8E1,1.1E1,9E0,4.06E2,1E0,2.4E1,2.6E1,2.11E2,7E0,2E0,1.1E1,3E0,7E0,2E0,3E0,2E0,1E0,4E0,1E0,1E0,3E0,1E0],"tree_param":{"num_deleted":"0","num_feature":"10","num_nodes":"69","size_leaf_vector":"1"}},{"base_weights":[1.2924526E-6,1.13933515E-2,-5.916264E-1,2.1710187E-2,-6.4983356E-1,-8.9096004E-1,1.852328E-1,1.2809482E-2,8.6567605E-1,-1.3159763E0,-1.5226522E-1,-1.1074744E-2,-9.5790654E-2,5.3496905E-2,-2.2624767E-1,4.3462273E-2,-3.8931987E-1,9.3393755E-1,1.9392256E-2,-2.9886115E-2,-1.4955397E-1,3.703424E-1,-3.8819153E-2,-3.20678E-2,-1.8693482E-3,-2.1038621E-3,2.7602482E-1,-8.1008065E-1,2.1301341E-1,1.1014121E-1,3.435009E-2,6.7418434E-2,-1.1867071E-2,-2.1090688E-2,7.487905E-3,7.985381E-2,4.96347E-3,-9.673988E-2,1.0331271E-1,6.0606934E-2,-7.719815E-2],"categories":[],"categories_nodes":[],"categories_segments":[],"categories_sizes":[],"default_left":[0,0,0,0,0,0,0,0,0,0,0,0,0,0,0,0,0,0,0,0,0,0,0,0,0,0,0,0,0,0,0,0,0,0,0,0,0,0,0,0,0],"id":18,"left_children":[1,3,5,7,9,11,13,15,17,19,21,-1,-1,-1,23,25,27,29,-1,-1,-1,31,-1,-1,-1,33,35,37,39,-1,-1,-1,-1,-1,-1,-1,-1,-1,-1,-1,-1],"loss_changes":[5.351448E0,5.3282666E0,3.6531353E0,5.7580433E0,3.77704E0,4.6847248E-1,8.4058356E-1,9.3973E0,1.8572807E-1,4.6622467E-1,1.1301388E0,0E0,0E0,0E0,5.2803665E-2,7.5032396E0,1.3858224E1,3.138461E-1,0E0,0E0,0E0,5.257539E-1,0E0,0E0,0E0,9.5478325E0,1.3682219E1,1.0278482E1,9.37251E0,0E0,0E0,0E0,0E0,0E0,0E0,0E0,0E0,0E0,0E0,0E0,0E0],"parents":[2147483647,0,0,1,1,2,2,3,3,4,4,5,5,6,6,7,7,8,8,9,9,10,10,14,14,15,15,16,16,17,17,21,21,25,25,26,26,27,27,28,28],"right_children":[2,4,6,8,10,12,14,16,18,20,22,-1,-1,-1,24,26,28,30,-1,-1,-1,32,-1,-1,-1,34,36,38,40,-1,-1,-1,-1,-1,-1,-1,-1,-1,-1,-1,-1],"split_conditions":[3.7790406E0,4.099182E0,-1.1724335E-1,4.224158E0,-7.380852E-2,-2.471934E0,3.2711232E-3,2.6354914E0,2.5481787E-1,-2.7409081E0,-6.07603E-1,-1.1074744E-2,-9.5790654E-2,5.3496905E-2,-1.6781648E0,1.8310196E0,3.6088884E-1,-2.9665977E-1,1.9392256E-2,-2.9886115E-2,-1.4955397E-1,4.4249487E0,-3.8819153E-2,-3.20678E-2,-1.8693482E-3,-1.3367124E0,-5.385524E-1,2.5351505E0,5.409297E-1,1.1014121E-1,3.435009E-2,6.7418434E-2,-1.1867071E-2,-2.1090688E-2,7.487905E-3,7.985381E-2,4.96347E-3,-9.673988E-2,1.0331271E-1,6.0606934E-2,-7.719815E-2],"split_indices":[5,0,4,8,1,0,2,8,1,1,9,0,0,0,0,0,2,7,0,0,0,0,0,0,0,8,9,6,4,0,0,0,0,0,0,0,0,0,0,0,0],"split_type":[0,0,0,0,0,0,0,0,0,0,0,0,0,0,0,0,0,0,0,0,0,0,0,0,0,0,0,0,0,0,0,0,0,0,0,0,0,0,0,0,0],"sum_hessian":[7.92E2,7.78E2,1.4E1,7.67E2,1.1E1,1E1,4E0,7.6E2,7E0,4E0,7E0,1E0,9E0,2E0,2E0,7.07E2,5.3E1,6E0,1E0,1E0,3E0,2E0,5E0,1E0,1E0,5.92E2,1.15E2,3.1E1,2.2E1,4E0,2E0,1E0,1E0,1.59E2,4.33E2,3.4E1,8.1E1,2.9E1,2E0,1.6E1,6E0],"tree_param":{"num_deleted":"0","num_feature":"10","num_nodes":"41","size_leaf_vector":"1"}},{"base_weights":[-3.0273786E-5,-9.655384E-1,6.0883206E-3,-1.2536646E0,9.348323E-3,8.698225E-1,-1.6412166E-3,-1.4334558E-1,-3.5714556E-2,2.6384845E-1,1.2583409E-1,-2.208066E-1,2.8942386E-2,4.8823766E-2,2.6306191E-2,1.9612087E-2,-7.7693295E-1,4.3145813E-2,-5.702982E-1,-2.3362595E-3,6.282188E-3,-3.4216675E-1,4.37306E-1,-1.2443932E0,4.0013364E-1,3.452423E-2,1.476475E0,-1.5555601E-1,-2.2327155E-1,1.1365499E-2,-1.1924266E-1,1.0333405E-2,1.2793083E-1,-3.8076923E-3,-1.6189873E-1,-5.689279E-2,9.794857E-2,8.453341E-3,-2.1012172E-2,-2.570646E-2,2.1400097E-1,4.229288E-2,-8.37576E-2],"categories":[],"categories_nodes":[],"categories_segments":[],"categories_sizes":[],"default_left":[0,0,0,0,0,0,0,0,0,0,0,0,0,0,0,0,0,0,0,0,0,0,0,0,0,0,0,0,0,0,0,0,0,0,0,0,0,0,0,0,0,0,0],"id":19,"left_children":[1,3,5,7,-1,9,11,-1,-1,13,-1,15,17,-1,19,21,23,25,27,-1,-1,29,31,33,35,37,39,-1,41,-1,-1,-1,-1,-1,-1,-1,-1,-1,-1,-1,-1,-1,-1],"loss_changes":[4.6905675E0,1.6428556E0,5.269001E0,1.3279295E-1,0E0,1.3160129E0,5.254735E0,0E0,0E0,2.0036402E-1,0E0,1.2850742E1,5.8803596E0,0E0,6.9087516E-3,1.04253025E1,1.645465E1,8.265671E0,5.1232815E0,0E0,0E0,1.4475501E1,8.866369E0,9.427811E0,5.610107E0,8.214906E0,5.1511755E0,0E0,5.514764E0,0E0,0E0,0E0,0E0,0E0,0E0,0E0,0E0,0E0,0E0,0E0,0E0,0E0,0E0],"parents":[2147483647,0,0,1,1,2,2,3,3,5,5,6,6,9,9,11,11,12,12,14,14,15,15,16,16,17,17,18,18,21,21,22,22,23,23,24,24,25,25,26,26,28,28],"right_children":[2,4,6,8,-1,10,12,-1,-1,14,-1,16,18,-1,20,22,24,26,28,-1,-1,30,32,34,36,38,40,-1,42,-1,-1,-1,-1,-1,-1,-1,-1,-1,-1,-1,-1,-1,-1],"split_conditions":[-4.0680604E0,-8.0627596E-1,-3.7681253E0,-2.8064995E0,9.348323E-3,-1.2719113E0,-2.0463483E0,-1.4334558E-1,-3.5714556E-2,-6.162625E-1,1.2583409E-1,9.970986E-1,3.6062205E0,4.8823766E-2,-2.1173768E-2,1.0556226E-1,2.0601768E0,3.4792473E0,-1.8840387E0,-2.3362595E-3,6.282188E-3,8.341711E-1,1.6113822E0,-9.03745E-1,5.043817E-1,1.8778411E0,-1.338935E0,-1.5555601E-1,7.0018286E-1,1.1365499E-2,-1.1924266E-1,1.0333405E-2,1.2793083E-1,-3.8076923E-3,-1.6189873E-1,-5.689279E-2,9.794857E-2,8.453341E-3,-2.1012172E-2,-2.570646E-2,2.1400097E-1,4.229288E-2,-8.37576E-2],"split_indices":[4,3,4,2,0,6,4,0,0,0,0,6,6,0,0,2,6,6,8,0,0,8,3,9,9,9,0,0,8,0,0,0,0,0,0,0,0,0,0,0,0,0,0],"split_type":[0,0,0,0,0,0,0,0,0,0,0,0,0,0,0,0,0,0,0,0,0,0,0,0,0,0,0,0,0,0,0,0,0,0,0,0,0,0,0,0,0,0,0],"sum_hessian":[7.92E2,4E0,7.88E2,3E0,1E0,6E0,7.82E2,2E0,1E0,3E0,3E0,9.5E1,6.87E2,1E0,2E0,6.7E1,2.8E1,6.72E2,1.5E1,1E0,1E0,3.6E1,3.1E1,2E1,8E0,6.69E2,3E0,3E0,1.2E1,2.4E1,1.2E1,2.3E1,8E0,5E0,1.5E1,3E0,5E0,5.56E2,1.13E2,1E0,2E0,6E0,6E0],"tree_param":{"num_deleted":"0","num_feature":"10","num_nodes":"43","size_leaf_vector":"1"}},{"base_weights":[-1.6174634E-4,-5.144591E-1,1.1090784E-2,-6.4992535E-1,3.343589E-1,2.7797094E-1,-1.3663685E-2,-1.3406074E-1,-4.4054297E-1,-2.460919E-2,7.476302E-2,1.2719617E0,1.7564447E-1,-5.5852836E-1,6.1550373E-3,-1.2185903E-1,-6.9629216E-1,1.8647377E-1,5.7606608E-2,5.0051665E-1,-4.861091E-2,8.8338025E-2,-7.2231954E-1,7.4838924E-1,-1.6043527E-2,-3.305931E-2,1.1733977E-2,-4.6596825E-3,-7.968086E-1,1.7078673E-2,-8.437683E-3,2.551688E-1,1.2349234E-1,5.0378495E-1,-2.7186066E-1,4.9038585E-2,-8.872917E-1,-1.7142591E0,1.1172534E0,-7.300714E-1,9.364023E-3,-3.264508E-2,-9.503748E-2,-1.1527737E-1,3.8994335E-2,-6.7791596E-2,6.897467E-2,-4.565849E-2,4.5077164E-2,1.3099685E-2,-4.926588E-3,-1.0824817E-1,1.1529072E-2,-3.539563E-2,-2.2174326E-1,6.166135E-2,1.6659768E-1,8.0062464E-2,-1.1997439E-1,1.5977034E-2,-5.877822E-3],"categories":[],"categories_nodes":[],"categories_segments":[],"categories_sizes":[],"default_left":[0,0,0,0,0,0,0,0,0,0,0,0,0,0,0,0,0,0,0,0,0,0,0,0,0,0,0,0,0,0,0,0,0,0,0,0,0,0,0,0,0,0,0,0,0,0,0,0,0,0,0,0,0,0,0,0,0,0,0,0,0],"id":20,"left_children":[1,3,5,7,9,11,13,-1,15,-1,-1,17,19,21,23,25,27,-1,29,31,33,-1,35,37,39,-1,-1,-1,41,-1,-1,43,-1,45,47,49,51,53,55,57,59,-1,-1,-1,-1,-1,-1,-1,-1,-1,-1,-1,-1,-1,-1,-1,-1,-1,-1,-1,-1],"loss_changes":[4.5949125E0,2.1720743E0,5.1370306E0,1.5786557E0,9.036368E-1,6.4895515E0,7.6919856E0,0E0,9.746916E-1,0E0,0E0,4.2116213E0,4.468445E0,6.5423813E0,1.1347862E1,3.8829422E-1,4.200065E-1,0E0,6.261956E-2,4.1895137E0,4.699882E0,0E0,2.9703217E0,2.008292E1,1.2143633E1,0E0,0E0,0E0,1.2313604E-1,0E0,0E0,4.2446127E0,0E0,2.8848524E0,3.8099828E0,4.6737995E-2,3.8429852E0,1.2685308E0,3.9175682E0,1.7495838E1,6.640509E0,0E0,0E0,0E0,0E0,0E0,0E0,0E0,0E0,0E0,0E0,0E0,0E0,0E0,0E0,0E0,0E0,0E0,0E0,0E0,0E0],"parents":[2147483647,0,0,1,1,2,2,3,3,4,4,5,5,6,6,8,8,11,11,12,12,13,13,14,14,15,15,16,16,18,18,19,19,20,20,22,22,23,23,24,24,28,28,31,31,33,33,34,34,35,35,36,36,37,37,38,38,39,39,40,40],"right_children":[2,4,6,8,10,12,14,-1,16,-1,-1,18,20,22,24,26,28,-1,30,32,34,-1,36,38,40,-1,-1,-1,42,-1,-1,44,-1,46,48,50,52,54,56,58,60,-1,-1,-1,-1,-1,-1,-1,-1,-1,-1,-1,-1,-1,-1,-1,-1,-1,-1,-1,-1],"split_conditions":[-3.5854776E0,2.1386487E0,-2.3319151E0,-8.6898994E-1,-1.0097163E-1,-2.541909E0,-2.0380983E0,-1.3406074E-1,2.1941084E-1,-2.460919E-2,7.476302E-2,6.196404E-1,-4.8102012E-1,-3.2045615E0,-1.832812E0,1.294291E0,-2.9665977E-1,1.8647377E-1,-3.829438E0,1.9900831E0,-7.313628E-1,8.8338025E-2,-1.8176361E0,-2.1929708E0,-1.6573265E0,-3.305931E-2,1.1733977E-2,-4.6596825E-3,3.99901E-1,1.7078673E-2,-8.437683E-3,-3.829438E0,1.2349234E-1,-2.254439E0,1.066811E0,-8.534079E-1,2.2575855E0,9.669478E-1,3.6654216E-1,-1.6781648E0,-8.6898994E-1,-3.264508E-2,-9.503748E-2,-1.1527737E-1,3.8994335E-2,-6.7791596E-2,6.897467E-2,-4.565849E-2,4.5077164E-2,1.3099685E-2,-4.926588E-3,-1.0824817E-1,1.1529072E-2,-3.539563E-2,-2.2174326E-1,6.166135E-2,1.6659768E-1,8.0062464E-2,-1.1997439E-1,1.5977034E-2,-5.877822E-3],"split_indices":[9,1,9,3,0,2,9,0,1,0,0,6,6,6,9,3,3,0,0,5,8,0,4,6,9,0,0,0,1,0,0,8,0,4,3,0,4,0,1,2,0,0,0,0,0,0,0,0,0,0,0,0,0,0,0,0,0,0,0,0,0],"split_type":[0,0,0,0,0,0,0,0,0,0,0,0,0,0,0,0,0,0,0,0,0,0,0,0,0,0,0,0,0,0,0,0,0,0,0,0,0,0,0,0,0,0,0,0,0,0,0,0,0,0,0,0,0,0,0,0,0,0,0,0,0],"sum_hessian":[7.92E2,1.6E1,7.76E2,1.4E1,2E0,6.5E1,7.11E2,2E0,1.2E1,1E0,1E0,5E0,6E1,2.4E1,6.87E2,6E0,6E0,3E0,2E0,2.4E1,3.6E1,2E0,2.2E1,1.9E1,6.68E2,3E0,3E0,1E0,5E0,1E0,1E0,1.9E1,5E0,1E1,2.6E1,4E0,1.8E1,2E0,1.7E1,2.2E1,6.46E2,2E0,3E0,1E0,1.8E1,1E0,9E0,2.1E1,5E0,2E0,2E0,1.5E1,3E0,1E0,1E0,1E1,7E0,5E0,1.7E1,2.01E2,4.45E2],"tree_param":{"num_deleted":"0","num_feature":"10","num_nodes":"61","size_leaf_vector":"1"}},{"base_weights":[-2.131021E-4,2.2771649E-1,-2.4339058E-2,1.110094E0,7.720332E-2,-4.4564262E-1,1.1739011E-3,1.6868936E-1,3.482788E-1,-9.143164E-2,7.100926E-1,-7.607496E-1,4.8289895E-1,-6.469674E-1,1.9830735E-2,4.1141804E-2,1.6291321E-3,-2.2195567E-1,1.2059902E0,1.0555643E0,-1.2286932E-1,2.992042E-1,-9.7609466E-1,-1.7698568E-1,6.49205E-1,-1.0079992E0,5.6552166E-1,4.1552302E-1,-7.049567E-3,1.7455928E-1,-6.095924E-1,2.687577E-2,1.373109E-1,-1.03685055E-2,1.1958903E-1,2.1860398E-2,-4.233862E-2,5.1773E-2,6.0508832E-2,-1.341601E0,-5.073883E-1,4.1496223E-3,-3.0697474E-2,1.170344E-1,3.331162E-1,-1.1271851E0,3.303016E-2,8.178745E-2,-2.2194488E-2,-2.0374812E-1,8.884659E-1,2.6085898E-2,-3.6140352E-1,1.0107844E-1,-1.42711E-2,-1.003475E-1,-9.926341E-3,-4.545981E-3,1.1098499E-2,-5.169486E-2,-1.8954717E-1,-9.910731E-2,4.878055E-3,3.5710048E-2,9.460518E-3,-4.924106E-3,-1.2063161E-1,-4.3343533E-2,1.1657288E-1,6.788068E-2,2.1298103E-1,3.8006697E-3,-9.330076E-2,-7.169277E-2,6.5460675E-3],"categories":[],"categories_nodes":[],"categories_segments":[],"categories_sizes":[],"default_left":[0,0,0,0,0,0,0,0,0,0,0,0,0,0,0,0,0,0,0,0,0,0,0,0,0,0,0,0,0,0,0,0,0,0,0,0,0,0,0,0,0,0,0,0,0,0,0,0,0,0,0,0,0,0,0,0,0,0,0,0,0,0,0,0,0,0,0,0,0,0,0,0,0,0,0],"id":21,"left_children":[1,3,5,7,9,11,13,-1,15,17,19,21,23,25,27,-1,-1,29,31,33,35,37,39,41,43,45,47,49,51,53,55,-1,-1,-1,-1,-1,-1,-1,57,59,61,-1,-1,-1,63,65,-1,-1,-1,67,69,71,73,-1,-1,-1,-1,-1,-1,-1,-1,-1,-1,-1,-1,-1,-1,-1,-1,-1,-1,-1,-1,-1,-1],"loss_changes":[4.366264E0,1.0007813E1,7.71809E0,4.246052E0,7.108924E0,1.2363549E1,8.211385E0,0E0,1.1906612E-1,9.242948E0,4.158403E0,7.367985E0,1.3220713E0,8.887242E0,7.0229063E0,0E0,0E0,7.6378937E0,4.141116E-1,1.7507248E0,6.056464E-1,2.8163928E-1,3.7734814E0,9.793906E-2,1.0926757E0,2.7649088E0,1.1751201E0,1.2481978E1,7.2775292E0,6.7769837E0,4.9256334E0,0E0,0E0,0E0,0E0,0E0,0E0,0E0,2.6440915E-2,5.414652E0,3.5454803E0,0E0,0E0,0E0,6.2600374E-3,1.1347828E0,0E0,0E0,0E0,6.4817433E0,4.8004875E0,6.5180626E0,8.09024E0,0E0,0E0,0E0,0E0,0E0,0E0,0E0,0E0,0E0,0E0,0E0,0E0,0E0,0E0,0E0,0E0,0E0,0E0,0E0,0E0,0E0,0E0],"parents":[2147483647,0,0,1,1,2,2,3,3,4,4,5,5,6,6,8,8,9,9,10,10,11,11,12,12,13,13,14,14,17,17,18,18,19,19,20,20,21,21,22,22,23,23,24,24,25,25,26,26,27,27,28,28,29,29,30,30,38,38,39,39,40,40,44,44,45,45,49,49,50,50,51,51,52,52],"right_children":[2,4,6,8,10,12,14,-1,16,18,20,22,24,26,28,-1,-1,30,32,34,36,38,40,42,44,46,48,50,52,54,56,-1,-1,-1,-1,-1,-1,-1,58,60,62,-1,-1,-1,64,66,-1,-1,-1,68,70,72,74,-1,-1,-1,-1,-1,-1,-1,-1,-1,-1,-1,-1,-1,-1,-1,-1,-1,-1,-1,-1,-1,-1],"split_conditions":[-2.416746E0,-1.4800048E0,-1.9554871E0,-9.188589E-2,1.1386365E0,1.0030822E0,-3.481112E0,1.6868936E-1,-1.6048213E0,2.6493807E0,1.8310196E0,-2.1929708E0,-1.948081E0,1.2527139E0,-2.4727774E0,4.1141804E-2,1.6291321E-3,-2.884958E-1,-8.534079E-1,-3.481112E0,-1.505E0,-4.656999E-1,-5.6351773E-2,1.4537745E0,-1.6816293E-1,2.3089447E0,6.6539323E-1,-6.3320655E-1,2.5351505E0,-1.6424845E0,1.181867E0,2.687577E-2,1.373109E-1,-1.03685055E-2,1.1958903E-1,2.1860398E-2,-4.233862E-2,5.1773E-2,-2.7409081E0,-2.281685E0,-1.237394E0,4.1496223E-3,-3.0697474E-2,1.170344E-1,1.6438783E0,-2.1432028E0,3.303016E-2,8.178745E-2,-2.2194488E-2,2.5351505E0,-2.55848E0,4.099182E0,6.825475E-2,1.0107844E-1,-1.42711E-2,-1.003475E-1,-9.926341E-3,-4.545981E-3,1.1098499E-2,-5.169486E-2,-1.8954717E-1,-9.910731E-2,4.878055E-3,3.5710048E-2,9.460518E-3,-4.924106E-3,-1.2063161E-1,-4.3343533E-2,1.1657288E-1,6.788068E-2,2.1298103E-1,3.8006697E-3,-9.330076E-2,-7.169277E-2,6.5460675E-3],"split_indices":[7,0,7,3,4,0,5,0,0,8,2,4,4,0,5,0,0,1,0,2,9,9,6,0,4,7,1,9,8,6,1,0,0,0,0,0,0,0,0,7,9,0,0,0,0,9,0,0,0,6,5,0,2,0,0,0,0,0,0,0,0,0,0,0,0,0,0,0,0,0,0,0,0,0,0],"split_type":[0,0,0,0,0,0,0,0,0,0,0,0,0,0,0,0,0,0,0,0,0,0,0,0,0,0,0,0,0,0,0,0,0,0,0,0,0,0,0,0,0,0,0,0,0,0,0,0,0,0,0,0,0,0,0,0,0,0,0,0,0,0,0,0,0,0,0,0,0,0,0,0,0,0,0],"sum_hessian":[7.92E2,7.5E1,7.17E2,1E1,6.5E1,4E1,6.77E2,5E0,5E0,5.2E1,1.3E1,3E1,1E1,1.8E1,6.59E2,4E0,1E0,4.8E1,4E0,9E0,4E0,5E0,2.5E1,2E0,8E0,1.4E1,4E0,4.1E1,6.18E2,2.4E1,2.4E1,1E0,3E0,1E0,8E0,2E0,2E0,2E0,3E0,1.3E1,1.2E1,1E0,1E0,2E0,6E0,1.3E1,1E0,3E0,1E0,1.8E1,2.3E1,5.66E2,5.2E1,6E0,1.8E1,1.3E1,1.1E1,1E0,2E0,6E0,7E0,6E0,6E0,5E0,1E0,1E0,1.2E1,1.6E1,2E0,2.1E1,2E0,5.6E2,6E0,2.8E1,2.4E1],"tree_param":{"num_deleted":"0","num_feature":"10","num_nodes":"75","size_leaf_vector":"1"}},{"base_weights":[3.9578366E-4,1.0578398E-2,-5.284477E-1,-1.020199E-2,3.137605E-1,-7.7722114E-1,1.24543495E-1,7.8290634E-2,-1.3516779E-1,-5.839004E-1,5.5277324E-1,-1.33875655E-2,-8.2816815E-1,4.2422166E-1,-2.1664917E-1,5.3410783E-2,9.3634117E-1,-1.7985344E-1,8.0011827E-1,3.1203082E-1,-1.3825148E0,-7.518586E-1,7.1861726E-1,-8.718056E-2,-2.1771535E-2,1.295048E-2,5.0682772E-2,-3.1875964E-2,-6.2141457E-4,-2.0079643E-1,1.3636294E-1,2.290665E-1,1.6054381E0,-2.6005557E-1,2.299167E-1,1.108983E0,-2.4928933E-1,-2.803988E-1,9.9792665E-1,-1.746176E-1,2.1789534E-2,-4.220897E-2,-1.7952286E-1,-4.5449767E-1,8.794597E-1,7.1514063E-3,-7.805918E-2,-4.212902E-2,2.1900808E-2,-1.8306961E-2,3.2826748E-2,1.7319408E-1,4.8646245E-2,1.1093008E-1,-2.876151E-2,7.365541E-2,-4.6419306E-3,2.2807522E-2,1.8050604E-1,7.972502E-3,-6.181662E-2,-7.833049E-3,-3.2164473E-2,2.4729436E-2,1.24959566E-1,1.6681464E-2,-3.3463992E-2,-4.6578445E-3,-5.4483283E-2,1.10661484E-1,1.7599478E-2],"categories":[],"categories_nodes":[],"categories_segments":[],"categories_sizes":[],"default_left":[0,0,0,0,0,0,0,0,0,0,0,0,0,0,0,0,0,0,0,0,0,0,0,0,0,0,0,0,0,0,0,0,0,0,0,0,0,0,0,0,0,0,0,0,0,0,0,0,0,0,0,0,0,0,0,0,0,0,0,0,0,0,0,0,0,0,0,0,0,0,0],"id":22,"left_children":[1,3,5,7,9,11,13,15,17,19,21,-1,23,25,27,29,31,33,35,37,39,41,43,-1,-1,-1,-1,-1,-1,45,47,49,51,53,55,57,59,61,63,-1,-1,65,-1,67,69,-1,-1,-1,-1,-1,-1,-1,-1,-1,-1,-1,-1,-1,-1,-1,-1,-1,-1,-1,-1,-1,-1,-1,-1,-1,-1],"loss_changes":[4.275902E0,4.911089E0,2.5335007E0,8.083324E0,1.1050384E1,2.4967003E-1,6.0314727E-1,9.087006E0,1.2807444E1,8.301928E0,9.194915E0,0E0,7.6581E-2,7.399559E-3,6.248203E-2,8.820675E0,5.3110714E0,9.590476E0,4.814207E0,2.7178874E0,3.8725243E0,3.6263611E0,7.1924324E0,0E0,0E0,0E0,0E0,0E0,0E0,1.6317913E1,1.4609774E1,3.4628582E-1,6.796837E-3,9.48958E0,6.7542934E0,6.333289E0,5.3474647E-1,8.143395E-3,2.577145E-1,0E0,0E0,3.003227E-1,0E0,1.5886986E-1,4.918701E0,0E0,0E0,0E0,0E0,0E0,0E0,0E0,0E0,0E0,0E0,0E0,0E0,0E0,0E0,0E0,0E0,0E0,0E0,0E0,0E0,0E0,0E0,0E0,0E0,0E0,0E0],"parents":[2147483647,0,0,1,1,2,2,3,3,4,4,5,5,6,6,7,7,8,8,9,9,10,10,12,12,13,13,14,14,15,15,16,16,17,17,18,18,19,19,20,20,21,21,22,22,29,29,30,30,31,31,32,32,33,33,34,34,35,35,36,36,37,37,38,38,41,41,43,43,44,44],"right_children":[2,4,6,8,10,12,14,16,18,20,22,-1,24,26,28,30,32,34,36,38,40,42,44,-1,-1,-1,-1,-1,-1,46,48,50,52,54,56,58,60,62,64,-1,-1,66,-1,68,70,-1,-1,-1,-1,-1,-1,-1,-1,-1,-1,-1,-1,-1,-1,-1,-1,-1,-1,-1,-1,-1,-1,-1,-1,-1,-1],"split_conditions":[3.7790406E0,2.6354914E0,-1.1724335E-1,5.0617385E-1,-7.696141E-1,-2.471934E0,3.2711232E-3,4.2885083E-1,3.2371006E0,-1.3776741E0,-2.9036996E0,-1.33875655E-2,3.187063E0,-1.7004528E0,-1.6781648E0,-1.338935E0,-3.6173858E-2,2.8194027E0,2.1532674E0,-1.9531888E0,-4.656999E-1,-1.267033E0,-2.1578348E0,-8.718056E-2,-2.1771535E-2,1.295048E-2,5.0682772E-2,-3.1875964E-2,-6.2141457E-4,-1.7574807E0,-2.7409081E0,4.4132832E-1,1.3190831E0,-3.548703E0,-7.157488E-1,-3.076046E-1,2.5351505E0,-8.0627596E-1,-3.5019115E-1,-1.746176E-1,2.1789534E-2,-2.9927707E0,-1.7952286E-1,-2.1092577E0,1.4727865E0,7.1514063E-3,-7.805918E-2,-4.212902E-2,2.1900808E-2,-1.8306961E-2,3.2826748E-2,1.7319408E-1,4.8646245E-2,1.1093008E-1,-2.876151E-2,7.365541E-2,-4.6419306E-3,2.2807522E-2,1.8050604E-1,7.972502E-3,-6.181662E-2,-7.833049E-3,-3.2164473E-2,2.4729436E-2,1.24959566E-1,1.6681464E-2,-3.3463992E-2,-4.6578445E-3,-5.4483283E-2,1.10661484E-1,1.7599478E-2],"split_indices":[5,5,4,3,3,0,2,3,2,3,1,0,0,0,0,8,0,3,0,3,1,2,6,0,0,0,0,0,0,8,3,3,1,2,2,9,0,0,0,0,0,1,0,0,1,0,0,0,0,0,0,0,0,0,0,0,0,0,0,0,0,0,0,0,0,0,0,0,0,0,0],"split_type":[0,0,0,0,0,0,0,0,0,0,0,0,0,0,0,0,0,0,0,0,0,0,0,0,0,0,0,0,0,0,0,0,0,0,0,0,0,0,0,0,0,0,0,0,0,0,0,0,0,0,0,0,0,0,0,0,0,0,0,0,0,0,0,0,0,0,0,0,0,0,0],"sum_hessian":[7.92E2,7.78E2,1.4E1,7.29E2,4.9E1,1E1,4E0,4.27E2,3.02E2,1E1,3.9E1,1E0,9E0,2E0,2E0,4.16E2,1.1E1,2.89E2,1.3E1,5E0,5E0,4E0,3.5E1,8E0,1E0,1E0,1E0,1E0,1E0,1.02E2,3.14E2,6E0,5E0,2.42E2,4.7E1,1E1,3E0,3E0,2E0,4E0,1E0,3E0,1E0,4E0,3.1E1,7E1,3.2E1,4E1,2.74E2,1E0,5E0,4E0,1E0,4E0,2.38E2,1.6E1,3.1E1,5E0,5E0,2E0,1E0,1E0,2E0,1E0,1E0,2E0,1E0,1E0,3E0,2.3E1,8E0],"tree_param":{"num_deleted":"0","num_feature":"10","num_nodes":"71","size_leaf_vector":"1"}},{"base_weights":[5.886755E-4,-9.02822E-1,6.3129654E-3,-1.1679761E0,7.889724E-3,7.8914464E-1,-6.93592E-4,-1.3377617E-1,-3.293098E-2,2.4398431E-1,1.1370187E-1,-1.9741166E-1,2.6756449E-2,4.4720512E-2,2.7175695E-2,1.34063065E-2,-6.849361E-1,-4.456334E-1,4.1566975E-2,-5.6699293E-5,4.1330536E-3,-3.1696677E-1,3.9498124E-1,-1.1021959E0,3.64774E-1,4.3653554E-1,-6.1691356E-1,1.1018343E0,2.5414864E-2,8.129541E-2,-5.618855E-2,-3.16243E-2,6.870361E-2,-4.359625E-3,-1.4302836E-1,-4.855972E-2,8.708924E-2,7.4647896E-2,-2.466474E-2,-1.9466612E-2,-1.2526359E-1,1.3318731E-1,1.2111979E-2,-4.578498E-2,4.1257027E-3],"categories":[],"categories_nodes":[],"categories_segments":[],"categories_sizes":[],"default_left":[0,0,0,0,0,0,0,0,0,0,0,0,0,0,0,0,0,0,0,0,0,0,0,0,0,0,0,0,0,0,0,0,0,0,0,0,0,0,0,0,0,0,0,0,0],"id":23,"left_children":[1,3,5,7,-1,9,11,-1,-1,13,-1,15,17,-1,19,21,23,25,27,-1,-1,29,31,33,35,37,39,41,43,-1,-1,-1,-1,-1,-1,-1,-1,-1,-1,-1,-1,-1,-1,-1,-1],"loss_changes":[4.106608E0,1.3936849E0,4.3281765E0,1.2903547E-1,0E0,1.0501156E0,4.2334185E0,0E0,0E0,1.6408698E-1,0E0,9.875958E0,4.8320074E0,0E0,1.2015142E-3,8.697417E0,1.3104103E1,3.4423628E0,1.1411868E1,0E0,0E0,1.0696119E1,6.8641963E0,7.231228E0,4.2964E0,1.0311093E0,4.5879316E0,2.0947065E0,5.0641656E0,0E0,0E0,0E0,0E0,0E0,0E0,0E0,0E0,0E0,0E0,0E0,0E0,0E0,0E0,0E0,0E0],"parents":[2147483647,0,0,1,1,2,2,3,3,5,5,6,6,9,9,11,11,12,12,14,14,15,15,16,16,17,17,18,18,21,21,22,22,23,23,24,24,25,25,26,26,27,27,28,28],"right_children":[2,4,6,8,-1,10,12,-1,-1,14,-1,16,18,-1,20,22,24,26,28,-1,-1,30,32,34,36,38,40,42,44,-1,-1,-1,-1,-1,-1,-1,-1,-1,-1,-1,-1,-1,-1,-1,-1],"split_conditions":[-4.0680604E0,-8.0627596E-1,-3.7681253E0,-2.8064995E0,7.889724E-3,-1.2719113E0,-2.0463483E0,-1.3377617E-1,-3.293098E-2,-6.162625E-1,1.1370187E-1,9.970986E-1,-3.481112E0,4.4720512E-2,-2.1173768E-2,1.0556226E-1,2.0601768E0,-4.664197E-1,-3.1834962E0,-5.6699293E-5,4.1330536E-3,-2.245459E0,-9.636551E-1,-9.03745E-1,5.043817E-1,-8.0627596E-1,9.044115E-1,4.4132832E-1,-3.4320796E0,8.129541E-2,-5.618855E-2,-3.16243E-2,6.870361E-2,-4.359625E-3,-1.4302836E-1,-4.855972E-2,8.708924E-2,7.4647896E-2,-2.466474E-2,-1.9466612E-2,-1.2526359E-1,1.3318731E-1,1.2111979E-2,-4.578498E-2,4.1257027E-3],"split_indices":[4,3,4,2,0,6,4,0,0,0,0,6,1,0,0,2,6,4,1,0,0,9,0,9,9,0,9,6,5,0,0,0,0,0,0,0,0,0,0,0,0,0,0,0,0],"split_type":[0,0,0,0,0,0,0,0,0,0,0,0,0,0,0,0,0,0,0,0,0,0,0,0,0,0,0,0,0,0,0,0,0,0,0,0,0,0,0,0,0,0,0,0,0],"sum_hessian":[7.92E2,4E0,7.88E2,3E0,1E0,6E0,7.82E2,2E0,1E0,3E0,3E0,9.5E1,6.87E2,1E0,2E0,6.7E1,2.8E1,2E1,6.67E2,1E0,1E0,3.6E1,3.1E1,2E1,8E0,3E0,1.7E1,9E0,6.58E2,6E0,3E1,9E0,2.2E1,5E0,1.5E1,3E0,5E0,2E0,1E0,1.1E1,6E0,7E0,2E0,2E1,6.38E2],"tree_param":{"num_deleted":"0","num_feature":"10","num_nodes":"45","size_leaf_vector":"1"}},{"base_weights":[4.8680644E-4,4.4032335E-1,-1.0879108E-2,1.1633589E0,-3.8492642E-2,-2.9140365E-1,1.7867187E-2,-7.4488945E-2,1.5883897E-1,-6.531168E-1,4.2728707E-1,-5.9175617E-1,3.3395788E-1,3.7820065E-1,-1.9436693E-2,1.326328E-2,-2.4436621E-2,4.2484485E-2,-9.536781E-2,9.944856E-2,7.302635E-2,-2.3811787E-1,-1.2434213E0,1.095933E0,1.9081032E-2,-2.4670723E-1,6.5526295E-1,-6.971932E-1,1.3646145E-3,-1.1358715E-2,2.7933476E-2,-5.111215E-1,6.789087E-1,-1.5048636E0,4.7826424E-2,-1.7936075E-1,2.0972434E-1,6.6994125E-1,-5.6860125E-1,-4.942826E-2,-2.0961432E-1,1.1794431E0,2.0668426E-1,4.3089878E-2,-8.552569E-1,6.0065854E-1,-2.1687433E-2,-1.5395862E-2,-1.168656E-1,-2.2086503E-2,1.262946E-1,-1.6654046E-1,3.713545E-2,-3.3149194E-2,1.3851643E-2,-1.9995786E-2,1.1382171E-1,-8.130064E-2,8.155224E-2,2.792046E-2,-6.9963284E-2,2.4595015E-2,1.5364437E-1,-8.843292E-2,6.551802E-2,6.6395335E-2,-9.917047E-2,1.6468123E-1,2.9374132E-2,-7.1189515E-2,-3.9223602E-4],"categories":[],"categories_nodes":[],"categories_segments":[],"categories_sizes":[],"default_left":[0,0,0,0,0,0,0,0,0,0,0,0,0,0,0,0,0,0,0,0,0,0,0,0,0,0,0,0,0,0,0,0,0,0,0,0,0,0,0,0,0,0,0,0,0,0,0,0,0,0,0,0,0,0,0,0,0,0,0,0,0,0,0,0,0,0,0,0,0,0,0],"id":24,"left_children":[1,3,5,7,9,11,13,15,-1,17,19,21,23,25,27,-1,-1,-1,-1,29,-1,31,33,35,37,39,41,43,45,-1,-1,47,49,51,-1,53,-1,55,57,59,-1,61,63,-1,65,67,69,-1,-1,-1,-1,-1,-1,-1,-1,-1,-1,-1,-1,-1,-1,-1,-1,-1,-1,-1,-1,-1,-1,-1,-1],"loss_changes":[3.9691122E0,6.9688015E0,6.246775E0,4.327304E0,4.0007014E0,1.3721302E1,9.456962E0,1.379668E-1,0E0,2.3491263E0,7.219951E-1,1.0996153E1,5.7373676E0,1.1588794E1,8.995618E0,0E0,0E0,0E0,0E0,2.2333972E-1,0E0,8.608607E0,8.371788E0,9.314918E0,7.265911E0,7.558343E0,1.0572483E1,3.7564268E0,8.578297E0,0E0,0E0,5.926096E0,4.4829516E0,5.1366005E0,0E0,2.3935322E-1,0E0,3.8937697E0,4.0458937E0,4.468913E0,0E0,6.6205215E0,1.330159E1,0E0,4.1824236E0,6.901162E0,7.329639E0,0E0,0E0,0E0,0E0,0E0,0E0,0E0,0E0,0E0,0E0,0E0,0E0,0E0,0E0,0E0,0E0,0E0,0E0,0E0,0E0,0E0,0E0,0E0,0E0],"parents":[2147483647,0,0,1,1,2,2,3,3,4,4,5,5,6,6,7,7,9,9,10,10,11,11,12,12,13,13,14,14,19,19,21,21,22,22,23,23,24,24,25,25,26,26,27,27,28,28,31,31,32,32,33,33,35,35,37,37,38,38,39,39,41,41,42,42,44,44,45,45,46,46],"right_children":[2,4,6,8,10,12,14,16,-1,18,20,22,24,26,28,-1,-1,-1,-1,30,-1,32,34,36,38,40,42,44,46,-1,-1,48,50,52,-1,54,-1,56,58,60,-1,62,64,-1,66,68,70,-1,-1,-1,-1,-1,-1,-1,-1,-1,-1,-1,-1,-1,-1,-1,-1,-1,-1,-1,-1,-1,-1,-1,-1],"split_conditions":[-3.548703E0,4.188851E-2,-2.254439E0,-1.1071479E0,-3.0342788E-1,1.5083219E0,-1.6013799E0,-8.6898994E-1,1.5883897E-1,-6.162625E-1,4.188851E-2,7.9835033E-1,-1.4461584E0,-1.1868434E0,-1.4461584E0,1.326328E-2,-2.4436621E-2,4.2484485E-2,-9.536781E-2,7.565192E-1,7.302635E-2,-1.668864E-1,2.6354914E0,-5.857787E-1,-3.7062198E-1,2.8194027E0,3.6654216E-1,-2.1578348E0,-1.3204283E0,-1.1358715E-2,2.7933476E-2,4.1699207E-1,-2.310373E0,2.0458553E0,4.7826424E-2,1.8059571E0,2.0972434E-1,-1.2867804E0,3.2371006E0,-1.8840387E0,-2.0961432E-1,-4.4884396E-1,-9.487577E-1,4.3089878E-2,-4.0680604E0,-9.636551E-1,-3.4320796E0,-1.5395862E-2,-1.168656E-1,-2.2086503E-2,1.262946E-1,-1.6654046E-1,3.713545E-2,-3.3149194E-2,1.3851643E-2,-1.9995786E-2,1.1382171E-1,-8.130064E-2,8.155224E-2,2.792046E-2,-6.9963284E-2,2.4595015E-2,1.5364437E-1,-8.843292E-2,6.551802E-2,6.6395335E-2,-9.917047E-2,1.6468123E-1,2.9374132E-2,-7.1189515E-2,-3.9223602E-4],"split_indices":[6,9,6,8,2,2,6,0,0,0,8,9,5,9,6,0,0,0,0,3,0,9,7,3,4,1,1,5,6,0,0,2,1,8,0,1,0,8,7,9,0,5,4,0,3,3,5,0,0,0,0,0,0,0,0,0,0,0,0,0,0,0,0,0,0,0,0,0,0,0,0],"split_type":[0,0,0,0,0,0,0,0,0,0,0,0,0,0,0,0,0,0,0,0,0,0,0,0,0,0,0,0,0,0,0,0,0,0,0,0,0,0,0,0,0,0,0,0,0,0,0,0,0,0,0,0,0,0,0,0,0,0,0,0,0,0,0,0,0,0,0,0,0,0,0],"sum_hessian":[7.92E2,1.9E1,7.73E2,7E0,1.2E1,7.1E1,7.02E2,2E0,5E0,5E0,7E0,4.8E1,2.3E1,6.5E1,6.37E2,1E0,1E0,1E0,4E0,4E0,3E0,3.2E1,1.6E1,6E0,1.7E1,2E1,4.5E1,1.8E1,6.19E2,2E0,2E0,2.5E1,7E0,1.4E1,2E0,3E0,3E0,8E0,9E0,1.9E1,1E0,2E1,2.5E1,2E0,1.6E1,2.2E1,5.97E2,1.7E1,8E0,3E0,4E0,1.3E1,1E0,2E0,1E0,3E0,5E0,8E0,1E0,1.3E1,6E0,6E0,1.4E1,7E0,1.8E1,1E0,1.5E1,4E0,1.8E1,1.4E1,5.83E2],"tree_param":{"num_deleted":"0","num_feature":"10","num_nodes":"71","size_leaf_vector":"1"}},{"base_weights":[9.37133E-4,1.1528386E-2,-4.557156E-1,-9.582419E-3,5.5564404E-1,-6.172949E-2,-1.2333995E0,1.2156578E-1,-6.1340027E-2,-1.4907697E-1,1.1375471E0,5.577164E-1,-6.7235696E-1,-2.6514906E-2,-1.3740198E-1,6.097014E-2,9.742062E-1,-5.179108E-1,-2.847571E-2,4.3178144E-1,-1.2809783E0,7.937922E-1,1.9703639E-1,-8.9864105E-2,8.347215E-1,-1.1183759E-1,-2.7027416E-1,1.3340993E-1,-6.748639E-1,1.2306939E0,2.5313579E-2,5.003281E-1,-6.982825E-1,2.2541675E-1,-8.3734415E-2,8.1929564E-1,-7.4551694E-2,-1.4533047E-1,-2.9583653E-2,8.150471E-2,9.99328E-1,1.1686592E-2,-2.5166208E-2,3.556538E-2,1.0355487E-1,-4.5973138E-4,-3.35544E-2,7.797178E-3,9.122862E-2,-1.304076E-1,9.924555E-3,1.4849974E-1,4.1441344E-2,-2.3411889E-2,1.898307E-2,1.5356363E-3,7.3897496E-2,-1.0257327E-1,